300,0.001000
0.0095099258,-0.0073955048,-0.0075713843,0.0051942608,-0.0015004845,0.0024265391,0.0085315407,-0.0008571389,-0.0014445912,-0.0052410053,-0.0035453419,-0.0089163480,-0.0003827880,0.0025563799,0.0075701703,-0.0040727644,0.0040532627,0.0018004154,0.0043545843,0.0083286754,-0.0081575602,-0.0050120637,0.0036167108,-0.0006708516,0.0053060063,0.0070917336,0.0054309130,-0.0023253136,-0.0015579069,-0.0100523299,0.0086534819,-0.0027084695,-0.0037944520,0.0082135834,0.0026939115,0.0023481453,-0.0039135457,0.0073605991,-0.0055627357,-0.0046007791,-0.0046777341,0.0056444382,0.0059594940,0.0047667144,-0.0077716062,0.0062131439,0.0083861589,0.0092961300,-0.0054711692,-0.0028352003,0.0027978184,-0.0028197509,0.0052054772,0.0056541710,0.0044705256,0.0008012562,0.0019952399,-0.0035743362,0.0074165371,-0.0031698623,-0.0065262478,-0.0005478316,0.0083317490,0.0029268366,-0.0050687726,-0.0068921537,0.0089529085,0.0032263942,-0.0025214838,0.0075687842,-0.0074910177,-0.0077680805,0.0051974919,0.0012226363,0.0034164983,-0.0015515010,0.0013851702,-0.0032365123,0.0023312743,0.0064780408,-0.0067719024,-0.0045888398,-0.0077123849,-0.0048610820,-0.0078365105,0.0087671922,-0.0058766753,0.0053664666,0.0001611825,0.0027568921,0.0036005603,-0.0037366006,0.0088775791,-0.0002426538,-0.0096803115,-0.0040721632,0.0069993043,0.0016481907,0.0043071830,0.0068269161,0.0033024691
-0.0471952007,-0.0527129246,-0.0413030493,-0.0531380275,-0.0523247374,-0.0398278662,-0.0420128458,-0.0437289369,-0.0513260977,-0.0370210781,-0.0546801313,-0.0484273745,-0.0480348743,-0.0438019603,-0.0482074505,-0.0524125110,-0.0415797343,-0.0389163217,-0.0391125143,-0.0417069880,-0.0425180636,-0.0412953411,-0.0461742055,-0.0407770438,-0.0463638488,-0.0481876778,-0.0444021373,-0.0358390637,-0.0421047025,-0.0510158085,-0.0469651299,-0.0462151308,-0.0472251146,-0.0538701164,-0.0504469020,-0.0366656561,-0.0364602726,-0.0369851165,-0.0536951723,-0.0458240137,-0.0528629899,-0.0352390165,-0.0465960782,-0.0450078693,-0.0538138901,-0.0465739098,-0.0500367384,-0.0540491057,-0.0364104654,-0.0408201398,-0.0443620184,-0.0383404940,-0.0414116222,-0.0381679719,-0.0542233639,-0.0421047053,-0.0438581052,-0.0428066326,-0.0543644322,-0.0443283592,-0.0526208158,-0.0435234620,-0.0449914176,-0.0545388513,-0.0511346883,-0.0469850885,-0.0489594739,-0.0508998877,-0.0516926913,-0.0359886803,-0.0371172859,-0.0443604913,-0.0469632776,-0.0506120417,-0.0543400853,-0.0512437780,-0.0547635334,-0.0430681418,-0.0473038697,-0.0507502949,-0.0413288895,-0.0378061748,-0.0438054795,-0.0483038228,-0.0446452500,-0.0546460528,-0.0489912242,-0.0530475432,-0.0356354477,-0.0533644930,-0.0530076539,-0.0476520677,-0.0369988474,-0.0479490636,-0.0535831520,-0.0376951087,-0.0520969781,-0.0498714407,-0.0499433840,-0.0441616374,0.0070270398
-0.0492054328,-0.0458653265,-0.0635535976,-0.0601421751,-0.0545825783,-0.0569016343,-0.0621639498,-0.0519435821,-0.0487474813,-0.0564475545,-0.0615676345,-0.0560311528,-0.0509080357,-0.0567731783,-0.0512642978,-0.0449006014,-0.0548851484,-0.0447198568,-0.0560907135,-0.0593384006,-0.0544446587,-0.0596967016,-0.0624519863,-0.0621906665,-0.0620911090,-0.0620255245,-0.0518491480,-0.0601364893,-0.0546587152,-0.0616162344,-0.0556200038,-0.0451851128,-0.0490510213,-0.0485152815,-0.0632952892,-0.0603056984,-0.0596985223,-0.0568462279,-0.0619685188,-0.0598173019,-0.0593721180,-0.0595959869,-0.0612735734,-0.0605114962,-0.0562396689,-0.0472514064,-0.0580084273,-0.0605626010,-0.0597884253,-0.0580044148,-0.0497264527,-0.0494012125,-0.0625493012,-0.0466888331,-0.0603155323,-0.0564939328,-0.0555723435,-0.0639047176,-0.0461912937,-0.0576862117,-0.0479294444,-0.0598831147,-0.0560536181,-0.0442746881,-0.0529190865,-0.0516473184,-0.0498442227,-0.0632063265,-0.0542519419,-0.0607149741,-0.0623572913,-0.0611366826,-0.0551720994,-0.0582230719,-0.0540898912,-0.0561753388,-0.0501699205,-0.0535628834,-0.0457255137,-0.0472267181,-0.0486138543,-0.0566346341,-0.0516962918,-0.0570223743,-0.0538159250,-0.0557974721,-0.0490119893,-0.0602812018,-0.0508920335,-0.0440961008,-0.0455485157,-0.0580062989,-0.0478856931,-0.0458202319,-0.0605590987,-0.0631589591,-0.0555624894,-0.0478723073,-0.0612919099,-0.0479224276,-0.0006850490
-0.0067022539,0.0084889475,0.0095141254,0.0094769428,-0.0042814738,-0.0002421490,0.0040285290,0.0077502911,-0.0095352052,0.0011142466,0.0043787954,0.0059665040,-0.0043034256,-0.0030567042,0.0045520865,0.0063793690,-0.0016760271,0.0028293880,0.0034442481,-0.0042265314,-0.0076283033,0.0027367127,0.0035640146,-0.0072548690,-0.0095811458,-0.0073710431,0.0058326912,0.0033830653,0.0006279458,-0.0064970345,0.0008080179,-0.0059760212,-0.0068371662,-0.0068986851,-0.0094353704,-0.0097057252,-0.0059619779,-0.0005628008,-0.0017019004,-0.0057783798,0.0014809937,0.0042608437,0.0008094236,-0.0082998255,0.0053753848,0.0100434098,-0.0041625499,-0.0012085495,0.0000591117,0.0060476912,-0.0046468786,-0.0045231538,0.0041004212,0.0089997980,-0.0025077206,0.0000771299,-0.0022620408,-0.0019247986,0.0026202852,0.0090525435,0.0063180495,-0.0086828684,-0.0058421930,0.0042710818,0.0036644817,0.0094903575,-0.0075880065,-0.0044495662,0.0055791631,-0.0003378958,-0.0033045478,0.0027000167,0.0019028613,-0.0032743452,0.0011401266,0.0076588781,0.0016703332,0.0013947124,-0.0040177837,-0.0039924757,0.0020724065,-0.0093863102,0.0075162854,-0.0007161950,-0.0054680879,0.0065917880,-0.0007354648,-0.0053350700,-0.0039660679,-0.0056475722,0.0047599859,0.0003928401,0.0099286115,-0.0075694583,-0.0083093363,0.0066497016,0.0086568871,-0.0031127942,0.0014541557,0.0001317759,-0.0092750093
0.0077404957,0.0069073644,-0.0025775314,0.0044634473,0.0071496374,0.0035769420,0.0042317768,0.0037105269,-0.0037887753,-0.0048751984,-0.0085175998,-0.0017279973,0.0091910699,0.0016634058,0.0024666435,0.0095903423,-0.0008332621,0.0052182463,-0.0102265571,0.0059202912,-0.0008996521,-0.0081853796,0.0074037677,-0.0075147034,-0.0005774399,-0.0009526828,-0.0048412687,-0.0041121841,0.0058177727,-0.0014857221,0.0067716716,-0.0001277791,0.0082602132,0.0012917298,-0.0051260035,-0.0055771260,0.0058371048,0.0015942085,0.0014673763,-0.0086875162,-0.0078370169,-0.0033993028,0.0039074969,-0.0013662844,-0.0009270019,0.0010814332,-0.0036713747,-0.0080949649,0.0074015894,0.0051116595,0.0076586152,-0.0078019113,0.0062448503,0.0007648848,-0.0004756432,0.0053638103,0.0083733079,0.0004209013,0.0037888538,0.0003972876,-0.0051322365,0.0043452560,0.0075630180,-0.0060797747,0.0050236125,0.0094018628,0.0057987469,-0.0017621570,0.0069936310,0.0057600496,0.0013627295,-0.0055820231,-0.0080587029,-0.0013697617,-0.0004927901,-0.0005192037,0.0029719134,-0.0058662450,0.0005235438,-0.0031495466,-0.0021713742,0.0073947816,-0.0081397080,-0.0042065090,-0.0036312456,-0.0087153848,0.0051968937,0.0007138079,-0.0056174457,-0.0029043027,-0.0076545875,-0.0006838563,-0.0031031592,-0.0007579819,-0.0041343819,0.0080005076,0.0060367846,-0.0077769313,-0.0079296286,-0.0052865781,-0.0043860283
0.0001255865,-0.0061782955,-0.0034104585,0.0029426834,0.0098175863,0.0035516181,-0.0074550156,-0.0054408222,-0.0072159394,0.0046476821,0.0060004878,0.0008568072,0.0057616003,0.0041183131,-0.0055542648,-0.0035381787,-0.0073384289,0.0026064074,-0.0024183483,0.0016953553,-0.0089273935,0.0004276614,0.0032173794,0.0085336158,0.0011515483,-0.0031402917,-0.0038665704,0.0022485178,0.0039633582,-0.0051979463,-0.0012333489,-0.0005344807,0.0080342810,0.0011397520,0.0035259117,-0.0085018029,0.0028092056,-0.0003052203,0.0000613772,-0.0055521240,-0.0064592859,-0.0076999607,-0.0038684712,0.0069101404,-0.0077627077,-0.0014421401,0.0001119363,0.0010990763,0.0052168839,-0.0001693124,-0.0098728852,-0.0099188971,-0.0003183910,0.0012401106,0.0074229298,0.0089197152,0.0083043055,0.0051007124,-0.0002711947,0.0054785033,-0.0096758483,0.0056552066,-0.0008599825,0.0027753252,0.0064049679,0.0051437776,-0.0034655629,0.0059486043,-0.0047040012,-0.0007889663,-0.0012882560,0.0053663575,-0.0041461362,-0.0069792938,0.0056499765,-0.0019464168,0.0071983691,0.0064738611,0.0076316281,-0.0097711865,-0.0015859448,-0.0020800785,-0.0068948911,-0.0088509606,-0.0046792253,0.0052330462,0.0004488861,-0.0011515130,0.0056639759,-0.0010417482,0.0076360754,0.0014159410,-0.0019934142,0.0040689764,-0.0089922260,-0.0040880860,0.0046726197,0.0077079008,-0.0008125254,0.0059984194,0.0018655069
-0.0061212674,-0.0034289172,-0.0060438371,0.0011083288,0.0094809727,-0.0043735276,-0.0041134810,-0.0027959179,0.0070716988,0.0070014603,0.0087195877,0.0085804466,-0.0043644091,-0.0091786897,0.0070287102,0.0000930309,-0.0089254645,0.0068656160,-0.0040182803,0.0030057727,-0.0028263416,0.0085580374,0.0048287826,0.0025725689,0.0018176739,-0.0025993349,0.0016867628,0.0053844518,0.0024088136,-0.0088360475,-0.0043442631,0.0029642066,0.0005684295,-0.0055382646,-0.0005173572,-0.0066515013,-0.0044226292,0.0084856026,-0.0086507402,0.0061074841,-0.0065271711,0.0001401008,0.0050430988,-0.0071412460,0.0045952378,0.0046097625,-0.0025136774,0.0071629453,-0.0047385021,0.0019276703,-0.0065429383,0.0014473267,0.0086199984,0.0073791246,0.0058057314,-0.0036337519,-0.0081831925,-0.0041439276,0.0085789434,0.0088037451,-0.0053896251,0.0030034235,-0.0002525740,-0.0070190342,-0.0033622443,0.0058168908,-0.0084318825,0.0096060289,0.0072687938,0.0062766092,0.0019450998,-0.0077865452,-0.0059203245,-0.0022380003,0.0012491710,0.0064589897,-0.0026461101,0.0028952611,0.0072365424,0.0011571052,-0.0088067208,0.0025668041,-0.0018321183,-0.0019473285,0.0003651372,-0.0075060268,0.0005412727,-0.0071814298,0.0006232420,0.0044197871,-0.0005562071,0.0015272027,-0.0037168050,-0.0000389661,0.0050559161,0.0065032416,-0.0049899672,0.0049823269,0.0058080863,0.0017173782,-0.0034934439
0.0057837490,-0.0013900110,-0.0020884813,-0.0044360529,-0.0025457833,0.0079573293,-0.0077981533,0.0103312092,-0.0088095395,-0.0022662211,-0.0061085990,-0.0007463461,0.0027351529,-0.0064141214,0.0049972478,-0.0090091835,-0.0049426420,0.0087947705,0.0028656491,-0.0010963664,0.0057341208,0.0091315921,0.0009954736,-0.0093560913,0.0047811352,0.0013743842,0.0027610389,0.0061094791,-0.0011197873,-0.0026791785,-0.0052648930,-0.0022846700,-0.0053271753,0.0061582347,0.0102443173,0.0040982758,0.0068783779,0.0050077677,0.0103186835,-0.0042583795,0.0081048575,0.0067791820,-0.0053570877,0.0029910625,-0.0034843608,-0.0051818106,0.0016791212,-0.0028502235,-0.0081210747,-0.0082292007,0.0025425809,0.0078817873,-0.0039168735,-0.0005926828,-0.0071901128,0.0034082880,-0.0003222936,-0.0010303263,0.0057312246,0.0013264792,0.0044775327,0.0043129536,-0.0071914543,-0.0019414501,-0.0084219574,0.0069013604,-0.0002647179,-0.0002247258,-0.0006689399,0.0045705962,0.0035558947,0.0021315690,-0.0042908140,-0.0004573863,-0.0076190170,-0.0087087823,-0.0054399317,0.0000652316,-0.0067575630,0.0005043520,0.0010862168,-0.0006870501,-0.0023344312,-0.0088684613,0.0018016378,-0.0030689494,0.0058788319,-0.0089777070,-0.0051122644,0.0058614243,0.0087459453,0.0091084972,-0.0006940701,-0.0035728919,0.0059694104,-0.0049831128,0.0049469506,0.0082398900,0.0095879907,0.0026687086,0.0082879540
-0.0010738512,0.0033676560,-0.0000158260,-0.0093258455,0.0055077601,0.0090368534,0.0092328648,-0.0059332726,-0.0025893041,-0.0047265761,-0.0080832640,-0.0004398737,-0.0013998617,-0.0052243317,0.0044129546,-0.0037618803,0.0000897419,0.0053006796,0.0086921280,-0.0085254741,0.0036044555,0.0098624900,0.0040630581,0.0073760200,0.0024040975,-0.0082142039,-0.0010166104,0.0078210397,0.0050802491,-0.0011399239,0.0046342294,0.0026097155,-0.0077576614,0.0006031088,0.0016952250,0.0095474734,0.0040759366,0.0002909890,-0.0082123585,0.0066466721,0.0087668955,-0.0047609074,-0.0021039525,0.0099750250,0.0066520542,0.0060516583,0.0055577016,-0.0046282884,0.0075813112,-0.0054975425,0.0093460791,0.0060667248,0.0044562981,-0.0091140504,-0.0007383424,-0.0096382823,0.0092531414,0.0092088952,0.0005216134,0.0082413644,-0.0019432537,-0.0088122609,-0.0029631374,-0.0081043708,0.0041077798,-0.0000587924,0.0027358203,0.0054390322,-0.0040590473,-0.0089106610,-0.0005441049,-0.0009077554,0.0076205957,-0.0080851729,0.0040968193,-0.0056438183,-0.0080246079,0.0016782942,-0.0078622268,-0.0097293578,-0.0017528144,-0.0014315367,-0.0031396834,-0.0066769522,0.0065772297,-0.0087059661,0.0041222958,-0.0044758210,0.0069722991,0.0022787977,0.0013528545,0.0039452495,-0.0047816680,-0.0069403782,-0.0073393260,0.0091139897,-0.0033737943,0.0012956945,-0.0077872290,0.0011830041,0.0083673792
0.0088942732,0.0017752794,-0.0031797234,-0.0056069616,0.0055536895,-0.0027334458,0.0094522800,0.0043303080,-0.0002195404,0.0072322011,0.0079950973,0.0010697743,0.0088149997,-0.0079199079,-0.0081967612,-0.0063024391,-0.0100484633,0.0020472459,-0.0015659599,0.0076075585,-0.0078858868,-0.0097863584,0.0029424537,-0.0030783852,-0.0085732312,-0.0046879470,0.0078482640,-0.0005861506,-0.0034511326,0.0042529931,0.0033412461,-0.0033180758,-0.0066536007,-0.0000477994,-0.0036761723,0.0095544700,0.0036069122,-0.0018240368,-0.0029740040,0.0014946068,0.0016292996,0.0055371914,0.0085311395,0.0041681760,0.0059373761,0.0076500478,0.0045092362,-0.0068991990,0.0077165897,0.0077873800,-0.0036805033,-0.0026863243,0.0080841415,-0.0086970443,0.0045194555,0.0020063696,-0.0009983453,0.0049809701,-0.0011903572,0.0049642528,-0.0015302200,0.0067452807,-0.0052027572,0.0066482602,-0.0085206116,-0.0037579695,0.0032005360,0.0015087199,0.0094274014,-0.0027130451,-0.0081390206,-0.0014734653,0.0065451427,0.0077906166,-0.0041236215,0.0074938817,-0.0026287516,0.0089079524,-0.0014177630,0.0079239903,0.0089309067,-0.0026871589,-0.0099867828,0.0078468391,-0.0057112721,-0.0016520422,0.0081012231,-0.0054789104,-0.0077260035,0.0005313800,-0.0077970220,0.0073064123,0.0069856620,0.0035485460,-0.0081518115,-0.0088666102,-0.0094053544,-0.0029766738,0.0019345880,-0.0054094211,0.0003085006
-0.0060012750,0.0027996003,-0.0054327494,0.0000818751,0.0092756053,-0.0057812627,0.0048501093,0.0012344063,0.0060343568,-0.0098776212,-0.0050523707,-0.0099004512,0.0070246977,0.0037693953,0.0098733510,-0.0099276197,-0.0058329279,-0.0075568431,-0.0038361903,-0.0057899928,-0.0080436029,-0.0036837156,0.0078124345,0.0014373697,-0.0086528977,0.0080943401,0.0057841695,0.0038163471,-0.0027696766,-0.0023358520,-0.0064595518,0.0018449724,0.0068444269,0.0078260857,0.0038358024,0.0068781803,0.0002974929,0.0054009853,0.0003950349,0.0024716667,-0.0036297097,-0.0050187044,-0.0052407896,0.0061971349,-0.0037163135,-0.0020373127,-0.0044232876,0.0029916130,-0.0058894571,0.0075817278,-0.0039844780,0.0087684712,0.0050809689,0.0026118190,0.0071220509,0.0059535457,-0.0028236092,-0.0085807390,0.0023199581,-0.0044362053,-0.0081644321,-0.0054959129,-0.0037568403,0.0011410555,0.0015671421,0.0060203405,0.0057877737,0.0079688672,-0.0013696856,-0.0015519139,0.0055756908,-0.0009138003,-0.0039315181,-0.0066867622,0.0012626937,-0.0010243108,-0.0080519197,0.0077190253,-0.0012451241,-0.0096069897,0.0048773523,0.0010266671,-0.0061381120,0.0097867327,-0.0018142215,-0.0093359076,-0.0006477350,-0.0058064784,-0.0003635318,0.0085045709,0.0081293829,-0.0027527117,0.0097054325,0.0088483657,0.0076494241,0.0052183679,-0.0016946647,0.0010366464,-0.0017612742,0.0010336067,-0.0037060845
-0.0569560728,-0.0501386157,-0.0639045893,-0.0595665325,-0.0484284260,-0.0618192465,-0.0545203740,-0.0460313148,-0.0458805780,-0.0608291476,-0.0638287285,-0.0560363480,-0.0607034653,-0.0581985556,-0.0528581216,-0.0446917405,-0.0463697870,-0.0631301517,-0.0556009026,-0.0626491915,-0.0608345367,-0.0466319700,-0.0560602528,-0.0636865280,-0.0525894177,-0.0463594166,-0.0528393414,-0.0452445508,-0.0555707691,-0.0538897820,-0.0516993629,-0.0479394530,-0.0589191014,-0.0623501160,-0.0614546803,-0.0580254602,-0.0641219025,-0.0546337091,-0.0637458703,-0.0461379406,-0.0444564803,-0.0618144583,-0.0637104332,-0.0633423816,-0.0637416429,-0.0512674894,-0.0524802390,-0.0641807839,-0.0573643691,-0.0525165693,-0.0639470681,-0.0589910153,-0.0562822385,-0.0445777017,-0.0634955350,-0.0457025089,-0.0542953179,-0.0498588795,-0.0521774222,-0.0615378151,-0.0629028147,-0.0617517854,-0.0471555313,-0.0526487610,-0.0636198068,-0.0530196557,-0.0580355115,-0.0571316394,-0.0602102875,-0.0520997911,-0.0481826133,-0.0625206413,-0.0575010165,-0.0557079684,-0.0634477143,-0.0601492218,-0.0496084253,-0.0566090716,-0.0484140565,-0.0481418375,-0.0564801636,-0.0542731176,-0.0484239842,-0.0601596922,-0.0513767721,-0.0490089877,-0.0448602659,-0.0603640362,-0.0602204395,-0.0493283301,-0.0468728424,-0.0638076531,-0.0559467298,-0.0533671343,-0.0582830394,-0.0566992284,-0.0617513388,-0.0517672806,-0.0537473428,-0.0614116289,-0.0077347052
-0.0070307388,0.0087518501,-0.0073373715,-0.0052954907,0.0022859370,0.0075224755,0.0033888067,-0.0098885276,-0.0069358899,0.0095797043,0.0086083794,0.0071844909,0.0097894258,-0.0007114808,0.0000612059,0.0027263238,-0.0037035184,-0.0064237072,-0.0088703971,-0.0025854351,-0.0057354513,0.0063064035,0.0096239629,-0.0082149059,-0.0075122044,-0.0061561624,0.0081345351,-0.0020937765,0.0052292505,0.0064766755,0.0091600125,-0.0093277145,-0.0084652900,0.0009748399,-0.0015503815,-0.0033270309,-0.0052024241,0.0000386710,-0.0058647319,-0.0010028432,0.0067034771,-0.0000307349,0.0029345916,0.0027265060,0.0040882619,0.0053136484,0.0048643570,-0.0028544641,-0.0018945499,-0.0047993901,0.0003848110,-0.0073968223,0.0018749222,0.0094865255,0.0026027181,0.0037050891,-0.0053734214,0.0012030596,0.0044544270,-0.0057135106,0.0074066431,-0.0037245966,0.0038148299,0.0039359815,-0.0041630185,-0.0072098934,0.0089187667,0.0071133772,-0.0006946360,0.0020719882,-0.0027301260,-0.0039306880,-0.0034558659,-0.0050378210,0.0004529960,0.0033316878,0.0019770666,-0.0082192129,0.0081556376,-0.0044138220,-0.0048826836,-0.0035475689,0.0085157035,-0.0067610809,0.0071332421,0.0059735818,-0.0053448836,-0.0056655891,-0.0087495759,0.0020194880,0.0066397150,-0.0025725128,-0.0083037287,0.0049462767,-0.0012010013,-0.0028229817,-0.0049587262,0.0032652026,-0.0012151106,0.0036779236,0.0094795247
-0.0015145539,-0.0063215001,0.0030366574,0.0063443843,-0.0010007827,0.0091436854,-0.0065042778,0.0065120683,0.0062484639,0.0075633824,-0.0077999557,0.0004895271,0.0007765515,-0.0016750198,0.0000631307,0.0091782898,-0.0042717253,-0.0034370192,-0.0022475013,0.0039145012,0.0032712981,-0.0080435405,-0.0044412350,-0.0090196241,0.0069844518,-0.0000430911,-0.0026623882,-0.0001370008,-0.0000379683,-0.0067663851,-0.0007093936,0.0038495885,0.0092329230,-0.0029228501,-0.0063097822,0.0057651870,0.0018672394,-0.0065770827,0.0076861665,-0.0070402143,0.0080180590,0.0053885646,0.0062769048,0.0076936427,0.0020473078,-0.0010370395,0.0034212889,0.0041949621,-0.0066798902,-0.0032571534,-0.0097776176,-0.0050192724,0.0054082940,0.0074139704,0.0019216479,-0.0078162194,0.0051014507,-0.0082997713,-0.0001809490,-0.0035147398,0.0085571495,-0.0044789392,0.0095051993,0.0033875765,0.0028401615,-0.0025623992,-0.0088077816,-0.0033128495,0.0014253555,0.0053682929,0.0006799800,-0.0043989421,0.0080788402,-0.0024706776,-0.0064135677,0.0014234955,0.0092321853,0.0014216880,0.0008991216,-0.0055347392,-0.0051348037,-0.0097041171,0.0002135896,-0.0011981851,0.0048892901,-0.0013502655,0.0001292011,0.0018395372,0.0043895272,-0.0021234038,0.0028230846,-0.0090394232,-0.0005822949,-0.0055371787,-0.0062398992,0.0097659073,0.0078935922,0.0093835329,0.0064316964,-0.0028167347,0.0043336044
0.0085377331,-0.0006062616,0.0040958475,-0.0075863027,-0.0049626497,-0.0072643255,0.0087949858,0.0008739066,-0.0001133074,0.0020908405,0.0007875265,0.0030293853,-0.0096997429,-0.0053096090,0.0032467095,0.0031566650,-0.0040074390,-0.0085086686,0.0048839875,-0.0090117439,0.0034345321,-0.0052521488,0.0079316249,-0.0079724016,0.0009065311,0.0005097473,-0.0052495349,-0.0029034019,-0.0022972206,-0.0068733558,-0.0029020735,0.0068590256,0.0097723448,0.0089269815,0.0050248242,-0.0081046338,-0.0070440578,0.0055825930,0.0079363194,0.0019045913,-0.0023397563,-0.0085585287,0.0040534413,0.0000375999,-0.0076279494,-0.0026680704,-0.0042257726,0.0069286406,-0.0063312044,0.0064346210,0.0066313104,0.0071831716,-0.0095013797,0.0065928660,0.0054293873,-0.0080213847,0.0016105713,-0.0030211306,-0.0030996714,0.0026032175,0.0085722361,-0.0046581647,-0.0029106779,-0.0053704596,-0.0063538403,-0.0065197537,-0.0054186211,0.0087760469,-0.0032793715,0.0085204801,0.0032606477,0.0060002396,0.0082974096,-0.0007793178,-0.0032248769,0.0058038578,-0.0076920184,-0.0078110341,-0.0041581312,0.0077088809,-0.0015802314,-0.0089184679,0.0016279109,-0.0014390634,-0.0043987741,0.0032955404,-0.0022204018,-0.0090076163,0.0073843397,-0.0069508574,-0.0037287451,-0.0034764548,-0.0092817864,0.0022039734,-0.0022831919,0.0068256055,-0.0015395128,-0.0063159498,-0.0019559963,-0.0049980906,-0.0058727461
-0.0640317686,-0.0691972950,-0.0592935216,-0.0528551852,-0.0618742454,-0.0581907684,-0.0623987870,-0.0684846475,-0.0601260467,-0.0651765905,-0.0632147689,-0.0676934270,-0.0626387026,-0.0612078204,-0.0694730673,-0.0540439961,-0.0526086203,-0.0512699769,-0.0614630186,-0.0673906012,-0.0672952519,-0.0632630697,-0.0540074674,-0.0511655829,-0.0682694551,-0.0554422569,-0.0670872090,-0.0633869793,-0.0509012385,-0.0690180813,-0.0662010116,-0.0692017904,-0.0524124579,-0.0656224615,-0.0549205411,-0.0509127751,-0.0580503706,-0.0694556315,-0.0605641487,-0.0617719909,-0.0640092832,-0.0655311179,-0.0523832296,-0.0501195305,-0.0555749126,-0.0500659360,-0.0687582460,-0.0584464335,-0.0638450378,-0.0645746277,-0.0521879760,-0.0683613924,-0.0547701477,-0.0523586779,-0.0690995597,-0.0649270922,-0.0678767182,-0.0617932979,-0.0614218136,-0.0601507863,-0.0633728772,-0.0626118766,-0.0680522382,-0.0639743551,-0.0634061009,-0.0597153355,-0.0585717015,-0.0588908608,-0.0680158301,-0.0536134838,-0.0537232819,-0.0558741408,-0.0659834777,-0.0686015625,-0.0590702921,-0.0533075451,-0.0623407026,-0.0651792062,-0.0502259674,-0.0496007055,-0.0580894237,-0.0665437315,-0.0607551765,-0.0571535781,-0.0633208583,-0.0691172801,-0.0634498861,-0.0542310737,-0.0627256341,-0.0684334959,-0.0634627570,-0.0540706242,-0.0543859746,-0.0572901478,-0.0501679095,-0.0518587451,-0.0603512598,-0.0576028784,-0.0674277601,-0.0638195325,0.0011160786
0.0041659486,0.0032960496,0.0082176992,-0.0081121163,0.0008513491,-0.0075187020,-0.0023595645,0.0076041782,0.0057570319,-0.0066119941,0.0024033300,0.0022782943,-0.0047282670,-0.0034070033,0.0077580964,-0.0073970771,0.0100379488,0.0051962105,0.0026719914,-0.0008704833,0.0071988658,-0.0032234375,-0.0006754136,0.0046683620,0.0019536680,-0.0006190025,0.0027847336,-0.0057990769,-0.0071209971,-0.0074800284,0.0002089402,-0.0090113832,0.0008206616,-0.0003771080,-0.0045496617,-0.0081254349,-0.0025541297,0.0019536233,-0.0028630825,0.0058867860,-0.0084768277,-0.0080875622,0.0053511116,-0.0014766782,0.0096198492,0.0053433553,-0.0001137809,0.0048736544,0.0045742720,0.0076664990,0.0079235934,-0.0017049316,0.0091240454,0.0064182583,-0.0011409118,-0.0061444100,-0.0060553442,-0.0002822969,0.0016747943,-0.0047988955,0.0065621306,-0.0077708423,0.0025298584,-0.0035385716,-0.0046952260,0.0085248644,0.0017845246,-0.0073120559,-0.0081002582,0.0011244493,0.0006252545,-0.0057907282,-0.0083317589,0.0007207991,0.0070097484,0.0021321996,-0.0031536233,0.0024486746,-0.0070029559,0.0087364690,0.0030490674,-0.0059708625,0.0094333531,-0.0059652772,0.0025751140,-0.0077613809,-0.0019987545,-0.0046329127,0.0010329354,0.0000013892,-0.0018128898,0.0069157816,-0.0030485768,-0.0043717233,0.0035567286,-0.0057270539,0.0050732687,-0.0029725340,0.0011651321,0.0055216595,-0.0086213395
-0.0027214941,-0.0057685523,0.0032926264,0.0094072594,0.0006633020,-0.0037158993,-0.0077352917,-0.0062472274,-0.0066483316,0.0007864199,0.0032583800,0.0072943045,0.0098506112,-0.0073661900,-0.0044320978,-0.0009808453,-0.0026357883,-0.0074808103,-0.0088794737,-0.0030288230,0.0096706119,-0.0014746867,-0.0079669985,-0.0000074214,0.0033570067,0.0056249438,-0.0064335353,0.0084809813,0.0087410565,-0.0032009677,-0.0081970723,0.0026893447,-0.0038387758,0.0051952185,-0.0098360713,-0.0023231926,-0.0097512963,0.0037848770,-0.0076474508,-0.0081490152,-0.0005518668,-0.0056061175,0.0070755507,0.0030449531,-0.0008195811,0.0010835516,0.0074283501,-0.0043461274,0.0003292379,-0.0002748613,-0.0018621429,-0.0018503662,0.0020277085,-0.0035172186,-0.0046439806,-0.0031298920,0.0098053642,0.0038470604,0.0098701435,-0.0007016445,-0.0084209244,0.0003449496,-0.0057728873,0.0026403800,-0.0099535914,-0.0059404472,-0.0080618544,0.0091629005,-0.0094755654,0.0010675092,-0.0045673660,-0.0077691736,-0.0059895255,-0.0005714994,0.0091702761,-0.0091048959,0.0091690215,0.0000682821,-0.0004895996,0.0049785722,0.0054036518,0.0041422162,-0.0081331658,0.0031368857,0.0060443213,0.0071937933,-0.0096809706,0.0009935320,0.0003258840,0.0051308145,-0.0041179485,0.0042562392,-0.0039451652,0.0001147210,0.0023387750,0.0084478396,0.0094310331,0.0017519520,0.0031484691,0.0039928096,-0.0055064695
-0.0156998905,-0.0098293942,-0.0093437080,-0.0154022314,-0.0127455933,-0.0101366730,-0.0109670135,-0.0007247476,-0.0159661046,-0.0111524970,-0.0152424185,-0.0102924289,-0.0093112916,-0.0023407351,-0.0005799082,-0.0040875954,-0.0017824602,-0.0130045304,0.0017312401,-0.0092126543,-0.0021200972,-0.0024577675,-0.0034457337,-0.0038139797,-0.0081434463,-0.0109261943,0.0009841635,-0.0128856746,0.0003230458,-0.0109342349,-0.0029521938,-0.0135180225,-0.0075370439,0.0009354051,-0.0052329605,-0.0156408470,-0.0104150060,-0.0028129704,-0.0140982040,-0.0070266374,-0.0123029066,0.0019782499,-0.0125196438,-0.0114118786,-0.0103743975,-0.0048758508,-0.0001552329,0.0021555984,-0.0161229458,-0.0149040127,-0.0079969447,-0.0161614977,0.0029806132,-0.0059831737,-0.0139112962,-0.0004637816,-0.0111796667,-0.0100475143,0.0009621508,-0.0055579305,-0.0025067897,-0.0038225332,0.0019513785,-0.0012742079,-0.0015871369,-0.0077720218,-0.0116574442,-0.0046717267,-0.0127279815,-0.0041774195,-0.0110387318,-0.0123417227,-0.0116285125,-0.0141723974,0.0032192952,-0.0119917294,0.0007348328,-0.0046910741,-0.0066726791,0.0023456604,-0.0027192616,-0.0031578231,-0.0148355495,-0.0140158657,0.0020839952,-0.0043713251,-0.0093468176,-0.0103077768,-0.0064262937,-0.0087603934,-0.0166081396,-0.0092165568,-0.0047944567,0.0019981829,-0.0140682444,-0.0054858156,-0.0027580885,0.0027430565,0.0008746110,-0.0137719808,0.0091769754
-0.0074631187,0.0041772464,0.0081907951,-0.0089752185,-0.0037441643,-0.0035363810,0.0084729804,0.0070153469,0.0002546338,-0.0019322333,0.0042975701,0.0047750750,0.0097999815,0.0080217462,0.0036264878,-0.0071476875,0.0057172315,-0.0008102991,-0.0061489694,-0.0007803527,-0.0093287174,-0.0020756529,0.0046559349,-0.0028139673,-0.0006201334,-0.0062810035,0.0058271524,0.0052235385,0.0051071724,-0.0097602654,0.0065294027,-0.0034322840,-0.0079699055,-0.0037980464,-0.0069888274,-0.0094292595,-0.0031132754,-0.0088504645,-0.0046344426,-0.0030377524,-0.0006408190,0.0027028732,0.0025114352,-0.0040213356,-0.0055588516,0.0000906031,-0.0047080726,0.0034301364,0.0048607376,0.0093615858,-0.0080481582,0.0043125234,0.0007910447,0.0065585843,-0.0052481946,-0.0058211289,-0.0014825616,0.0068996362,0.0088484556,0.0017698996,0.0032465884,0.0087246564,-0.0046380845,-0.0039999009,0.0041759683,-0.0063076122,0.0000991966,-0.0037853563,-0.0075463531,0.0050780534,-0.0073485103,-0.0014361511,-0.0019128746,-0.0047857922,0.0048749568,0.0065287203,-0.0089890440,-0.0001624655,-0.0042596324,0.0020489282,0.0084004357,0.0040115958,0.0026465289,0.0058626074,0.0009891390,0.0011019717,0.0013717958,0.0074005962,-0.0063794480,-0.0068416877,-0.0010610369,0.0032350859,0.0056804713,0.0063314763,-0.0040671993,-0.0045884485,-0.0025153173,0.0090312748,0.0084259959,0.0032344863,-0.0021186888
-0.0085899458,0.0090800625,0.0092828388,-0.0091333067,-0.0041958654,-0.0024714981,-0.0038139305,-0.0007802324,0.0096433043,0.0068949358,0.0037017201,-0.0067027969,0.0025871899,-0.0071692233,-0.0072154769,0.0102522173,0.0025821932,-0.0079919135,0.0073250435,0.0063314193,0.0078995468,0.0036936165,0.0022679834,0.0025059075,0.0047765820,0.0081528728,-0.0005525130,-0.0045755751,0.0047312417,0.0094420844,0.0038050080,-0.0073247347,0.0022477771,0.0065040528,0.0036504089,0.0095938919,-0.0084149562,-0.0073180797,-0.0082101199,-0.0050527835,0.0014383556,-0.0014829199,-0.0048616798,0.0097330968,-0.0087471636,0.0092308418,0.0060238262,0.0093803662,0.0102294184,-0.0009565458,-0.0095413967,-0.0093180344,0.0102646424,0.0071977081,-0.0027673061,-0.0017778450,-0.0086689556,0.0083433085,0.0011612671,-0.0061699525,-0.0083794342,-0.0046746602,-0.0035957736,-0.0017668639,-0.0094039066,0.0063248336,-0.0075693026,0.0050465956,-0.0049161473,-0.0061081470,0.0051315770,-0.0016176975,-0.0012693412,0.0023009137,0.0094567355,0.0068047646,0.0058861132,-0.0006585289,0.0082048967,0.0049986451,-0.0008016383,-0.0001026937,0.0015688900,-0.0074017091,0.0018110109,0.0027241625,-0.0038422581,0.0037261773,-0.0067446851,-0.0075759760,-0.0024383432,-0.0064671313,-0.0049152266,0.0096936757,-0.0036505686,-0.0008397237,0.0024356601,-0.0080724402,0.0038911322,-0.0080874223,-0.0004149839
0.0017915296,0.0084904555,0.0004870333,-0.0061596632,-0.0013363429,0.0018466006,0.0012590378,-0.0071727523,0.0021323687,0.0004650040,0.0012713326,-0.0051274517,-0.0081857421,0.0072747794,-0.0091907976,-0.0036150074,0.0077586861,0.0037894721,0.0063042347,0.0018135719,0.0003607326,-0.0023959521,0.0087652534,0.0004730381,0.0086133979,0.0066356131,0.0071909588,-0.0008405253,0.0069211803,0.0028576898,-0.0066341227,-0.0044597080,0.0083284505,-0.0090355526,-0.0021929550,-0.0063486261,-0.0029293857,-0.0042333786,0.0016664182,0.0086949458,-0.0031881756,-0.0076899917,0.0031272370,0.0046434689,-0.0057116383,-0.0101204642,0.0005797340,0.0002921111,0.0081515558,0.0043569857,-0.0061230973,-0.0062504629,0.0056671916,0.0089545299,0.0090097769,0.0061257677,-0.0032129313,-0.0067422975,0.0069428806,-0.0046046183,-0.0011115779,0.0070857518,0.0063370031,-0.0038308990,-0.0048588827,-0.0053670960,0.0036648465,-0.0069906785,0.0072698460,-0.0041890685,0.0052575761,0.0078546049,-0.0010680228,0.0031662909,0.0066697898,-0.0055588948,0.0013696078,-0.0021195098,0.0075580198,0.0071382328,-0.0049225978,0.0023408160,0.0035258047,0.0081315403,-0.0059041085,0.0004126706,0.0035513801,-0.0027073845,0.0081909673,-0.0077434885,0.0037922796,-0.0046399544,-0.0071753911,0.0091427500,-0.0013704241,-0.0065387477,0.0090416917,0.0064756862,-0.0051255713,-0.0081165043,0.0052368144
0.0043655693,-0.0002336724,-0.0021953684,0.0069321235,0.0052495275,0.0062043219,0.0098303994,-0.0018898096,0.0022523225,-0.0066764708,0.0050555620,0.0055001130,-0.0050114534,0.0048028611,-0.0086851171,0.0043625781,-0.0068249723,0.0066169033,0.0058576941,0.0090675853,-0.0096032021,0.0031920227,-0.0041500834,-0.0076220622,-0.0047724886,-0.0096305999,-0.0018001185,-0.0049598509,-0.0093044419,-0.0037346061,-0.0085765069,-0.0097423047,0.0002460676,0.0035663434,-0.0065615969,0.0082445274,-0.0019671500,-0.0027945332,-0.0012100550,0.0076721355,0.0053327749,0.0045329567,-0.0089883931,-0.0065105789,-0.0076475901,-0.0084045734,0.0037279095,0.0013089495,-0.0052946277,0.0011155563,-0.0054514837,-0.0091600739,-0.0030291533,-0.0014738921,-0.0040390819,0.0066862485,0.0081159787,-0.0095806164,0.0031849912,-0.0061104361,-0.0028044473,0.0031026356,0.0096491367,-0.0076362199,-0.0085352728,0.0047001713,0.0086711650,-0.0001838463,-0.0056612920,0.0080769277,0.0011634794,0.0082091417,-0.0034236019,-0.0064789782,-0.0073107116,-0.0030092490,0.0006918542,0.0018461817,0.0095225635,0.0092354933,0.0075999642,0.0006017451,0.0086734991,0.0040050768,0.0070186422,0.0064287909,-0.0093200233,0.0009470598,0.0099207731,-0.0035582315,0.0100714943,-0.0027795503,0.0082257608,0.0100593827,0.0055989141,-0.0071370879,-0.0020548938,-0.0032906236,0.0037051838,-0.0065625037,-0.0079789430
0.0068033382,-0.0012190674,-0.0008666158,0.0062420663,0.0054378567,-0.0064763271,0.0072697455,-0.0084300392,0.0057317998,0.0020495380,0.0066592744,-0.0001762377,-0.0011423637,0.0062255991,-0.0091568296,-0.0075190309,0.0058903250,0.0021882446,0.0074886447,-0.0000657219,0.0002246564,0.0046191393,0.0074901050,-0.0074387968,-0.0079902154,0.0037199727,0.0092665010,0.0023226010,-0.0045184877,-0.0051144636,0.0034619261,0.0098578461,0.0080253423,0.0032241427,-0.0083215194,0.0059827703,0.0099255518,0.0043532524,0.0040915216,0.0023413234,-0.0027692648,-0.0071192024,-0.0046202505,-0.0082624487,-0.0001866190,-0.0082288487,-0.0068083121,-0.0045047693,-0.0099003755,0.0015132346,0.0083411867,-0.0092292490,-0.0080350379,-0.0004039667,-0.0025569894,0.0028903211,-0.0065382834,0.0089954657,-0.0087426074,0.0060331479,0.0044249531,-0.0021674067,0.0054998024,0.0043268982,-0.0052555012,0.0036418298,0.0088874915,-0.0029127628,0.0086975818,-0.0006924620,0.0013700690,0.0058324588,0.0062424123,-0.0044315170,0.0027330824,0.0053489494,0.0019709141,-0.0055278507,-0.0078786394,0.0019710704,-0.0086004539,0.0036373074,-0.0079484197,0.0010635122,0.0046164253,-0.0012510172,0.0004945971,0.0024338474,-0.0082407434,-0.0084721270,-0.0038818082,0.0058356509,-0.0020893724,-0.0048625811,0.0000322414,0.0090597275,-0.0077114959,-0.0029590384,0.0042251667,-0.0073392799,0.0006849811
-0.0022522380,-0.0016738917,0.0052885996,0.0089115402,-0.0030326844,0.0024125974,0.0011869370,-0.0060804063,-0.0039333821,-0.0029862424,-0.0038666124,-0.0077692623,0.0017393829,0.0075629518,0.0046196158,-0.0007231922,-0.0046368694,0.0061004167,0.0003622590,-0.0046703932,0.0061235825,-0.0083785170,-0.0033121726,-0.0000880172,-0.0055150761,-0.0011745835,0.0025626337,-0.0053634246,0.0022756050,-0.0022364660,-0.0049109282,0.0028972624,-0.0094569292,0.0082508141,0.0046010115,-0.0007790854,0.0013209268,-0.0048133719,-0.0017509719,-0.0001600398,-0.0063288123,0.0037287348,0.0048443210,-0.0072854737,-0.0046970010,0.0011748200,-0.0050154514,-0.0024108050,-0.0075175007,0.0035761454,-0.0085903554,-0.0048864437,0.0051661965,-0.0043507805,0.0058674680,0.0018253740,-0.0090175872,-0.0084703500,-0.0066508982,-0.0048969308,0.0014261094,0.0093772921,0.0071880447,0.0096573761,-0.0089051208,-0.0019576761,0.0064849392,0.0070434492,-0.0093867017,0.0035577888,-0.0001038320,-0.0077855334,0.0022034645,-0.0017695887,0.0011659765,-0.0042424137,0.0060817093,-0.0058950894,0.0038765257,-0.0094556357,0.0016105320,0.0083763691,0.0075634803,-0.0022584255,0.0095898426,0.0012535754,0.0003687603,-0.0057333313,-0.0060599239,0.0092902770,0.0080074185,0.0075904533,-0.0040018209,0.0056610273,-0.0037580010,-0.0002967855,-0.0045743069,-0.0073055765,-0.0036538952,0.0088033798,-0.0097026083
0.0090260982,0.0023142982,-0.0079093839,0.0011799444,0.0017546504,0.0081072602,-0.0029844336,-0.0045997348,-0.0047216887,0.0075507271,0.0021869839,-0.0074278939,0.0031500746,0.0038112669,0.0013524174,0.0087446778,-0.0063338725,-0.0017654385,0.0092941758,0.0041917897,-0.0086715088,0.0007080436,0.0058242015,-0.0053974654,0.0090139360,0.0026230531,-0.0024624611,-0.0038733314,0.0004861087,-0.0068133588,0.0065232713,0.0073372165,0.0049359492,-0.0044335838,-0.0038236546,0.0018022285,0.0074541009,-0.0043370771,0.0039294733,-0.0046371680,0.0080293210,0.0086441024,-0.0021473964,0.0094904923,-0.0054139313,-0.0096550849,-0.0101545261,0.0066670457,0.0037029772,-0.0102271265,0.0032790495,-0.0056289845,-0.0059794268,0.0025181692,0.0057876965,-0.0095539487,0.0051442733,0.0078186033,-0.0102638944,0.0067528134,-0.0018190204,0.0093890843,-0.0063514900,-0.0017155643,0.0045466923,0.0054062002,0.0001991771,-0.0010735394,0.0076053595,0.0087793371,-0.0025841147,0.0089947109,-0.0057365877,-0.0016216772,-0.0075384944,0.0045251663,0.0040940818,0.0000678967,0.0046717034,0.0032277195,0.0041915378,-0.0064882854,-0.0087584969,0.0090715920,-0.0048947255,0.0020730135,-0.0089894377,-0.0081936762,-0.0004218021,0.0013567124,0.0038414596,-0.0060427964,-0.0097013915,-0.0020397696,-0.0009266121,0.0001566637,-0.0014360256,-0.0085033523,-0.0043061527,0.0085790162,-0.0088501724
0.0054335109,-0.0004134682,0.0022210593,0.0072721623,0.0082902725,-0.0031520355,0.0047089224,0.0005378207,0.0025982163,-0.0052055089,0.0028346881,-0.0071077385,-0.0008335800,0.0090619900,-0.0070644576,0.0033569953,-0.0063989626,0.0017194765,0.0034469815,-0.0023042868,0.0027751449,0.0096585378,0.0046424787,0.0020036280,-0.0072846005,-0.0061309657,0.0051039728,-0.0078964568,0.0054200789,-0.0033978892,-0.0053974300,0.0035490735,-0.0092109353,-0.0056338285,0.0094489055,0.0077235735,-0.0016352467,-0.0042596969,0.0014765212,0.0048993134,-0.0006022375,0.0098452295,-0.0098971264,-0.0001844077,-0.0066440140,-0.0020714665,-0.0066152474,-0.0081585600,0.0019479564,-0.0023425200,0.0087652234,0.0028804102,0.0051267063,-0.0024598171,0.0064872269,0.0090532620,-0.0089411036,-0.0008981789,0.0058783417,0.0003197242,0.0061322359,0.0059159413,0.0061337229,-0.0088960312,-0.0068199883,-0.0022405255,-0.0022736530,-0.0081731969,-0.0043113079,0.0029522025,0.0088376128,0.0012575111,0.0098988205,0.0047884377,0.0064266731,-0.0003831079,0.0039468145,-0.0075929755,0.0094171787,0.0049211640,0.0056887782,0.0025175816,0.0022039565,-0.0038119995,-0.0001268005,-0.0100317890,-0.0030190367,0.0042297358,-0.0072559076,-0.0057123107,0.0059342248,-0.0036067043,-0.0000010674,0.0054383437,-0.0083703011,-0.0069330468,-0.0027548347,-0.0031284025,0.0011202997,-0.0052765056,0.0078839664
-0.0055002555,0.0006152075,0.0058324254,0.0011432280,-0.0074225715,0.0019324581,-0.0078795080,0.0045290010,0.0091254651,0.0096062221,-0.0020236203,-0.0059531959,0.0032352898,-0.0080379035,0.0042721186,0.0091978218,0.0059865065,-0.0062774046,-0.0056123665,-0.0013992603,-0.0071790581,-0.0085403950,-0.0018833309,-0.0077078287,0.0045570102,0.0011635488,0.0006897792,-0.0059884921,0.0069839231,0.0045678114,-0.0019744801,0.0015047125,0.0048275528,0.0061998539,-0.0049841026,0.0054461862,0.0007898315,-0.0057458133,-0.0087335864,0.0055641180,0.0028651342,0.0071673508,-0.0005822005,0.0001091480,0.0005484006,-0.0016575925,0.0061869083,-0.0082447123,-0.0088877567,-0.0092960562,0.0012309283,0.0016885542,0.0012492480,-0.0015935386,0.0093816793,0.0016582628,-0.0076475343,0.0067593771,-0.0037942930,0.0059533246,0.0075818884,-0.0060728742,0.0033742303,-0.0023558020,0.0076053562,-0.0020016388,-0.0077727143,0.0095329795,0.0012628371,-0.0078527470,-0.0059616664,-0.0099411356,-0.0032875832,0.0073969712,-0.0013370604,0.0086234382,-0.0061427434,0.0044932101,-0.0096730808,-0.0050824528,0.0019831936,0.0005062973,0.0052324134,-0.0050035958,0.0042847698,-0.0011186141,0.0075205291,0.0074015095,-0.0009165542,0.0030422275,0.0071806424,0.0071920321,-0.0029949060,0.0062098160,0.0071351717,-0.0055473286,0.0091960163,0.0080167627,0.0007002314,-0.0055039592,0.0094070259
-0.0097862495,-0.0038112298,-0.0098104707,0.0086113832,-0.0067537731,-0.0087716367,0.0030753285,-0.0057893435,-0.0091822560,0.0037186757,0.0087409769,0.0053600048,0.0029927087,0.0091958904,-0.0075307953,0.0055295525,-0.0055452783,-0.0024466525,0.0020389810,0.0007712954,0.0016858644,-0.0056856230,-0.0009935765,-0.0022140812,-0.0053668661,-0.0040400690,0.0000970168,0.0038419512,0.0034775540,-0.0036877629,0.0077523610,0.0042266160,-0.0052731933,0.0097178945,0.0001979468,-0.0027026495,0.0028131521,0.0034953777,0.0065316488,-0.0099636033,-0.0071614439,-0.0064902066,0.0029995831,0.0053014639,0.0002148579,-0.0001432106,0.0065020103,0.0002168815,-0.0037360335,0.0035634073,0.0076101699,-0.0060169183,0.0094522858,-0.0046437507,-0.0071360786,-0.0051190455,0.0033804305,-0.0089864014,0.0080114638,-0.0032146993,0.0044548808,0.0004072653,-0.0045295964,0.0081518716,0.0026022518,0.0085581568,0.0036760887,0.0031076422,0.0074571213,0.0071067608,-0.0086687062,-0.0019028669,0.0029277214,0.0026554563,0.0079252383,-0.0015018196,0.0002885623,-0.0096169654,-0.0026038818,0.0010726051,0.0035847010,-0.0027078832,0.0064696326,0.0052874294,0.0058682661,-0.0085902651,0.0001672705,0.0006710330,0.0002637492,-0.0057390745,-0.0034092953,-0.0034050242,0.0061284297,-0.0077895309,0.0068287346,-0.0044858857,-0.0032823573,0.0081318156,0.0029603709,0.0094150479,0.0083785343
0.0023297518,-0.0031765597,-0.0025012190,-0.0079182907,0.0057173608,0.0083725818,-0.0059151826,0.0083460876,0.0066836143,-0.0068230753,0.0096541698,0.0091060726,-0.0037819920,-0.0045412550,0.0087661039,-0.0027469343,0.0029982296,0.0020290483,-0.0054462064,0.0029642156,-0.0070519960,-0.0091606331,-0.0076597052,-0.0081243783,-0.0057841675,-0.0054485221,0.0061704876,0.0078525477,0.0041938545,0.0051976340,0.0097104939,-0.0032951593,0.0057240624,-0.0075277894,-0.0073463035,0.0074247440,-0.0043134055,0.0097055263,0.0038167449,0.0099502471,0.0092399789,-0.0078693377,-0.0082301144,-0.0052924817,-0.0096421504,0.0009201264,0.0073154766,-0.0077724206,0.0091186369,-0.0018448201,-0.0002203111,-0.0069436832,0.0010618414,-0.0047960093,0.0074980837,-0.0097814704,0.0082789378,0.0085837746,0.0063064379,0.0049110504,0.0048540238,0.0069470938,0.0006405252,0.0074662746,0.0048114504,-0.0052936918,-0.0042076850,0.0071803687,0.0076485092,0.0074337052,0.0097029531,-0.0047725535,-0.0011937717,-0.0085451492,-0.0069708264,0.0048419526,-0.0004580334,0.0099193260,0.0077600834,0.0014284709,-0.0037755309,-0.0079142427,-0.0060650688,-0.0066608433,-0.0029989777,0.0053356219,-0.0039373616,-0.0039639519,0.0029847694,-0.0010838231,0.0090580951,-0.0094369222,0.0098328496,-0.0033491712,-0.0025189092,0.0034398492,0.0050292158,-0.0010566945,0.0024725131,0.0046702147,-0.0011209438
-0.0177132719
0.0016734810
-0.0055357380
-0.0083090396
-0.0032950010
-0.0059677573
-0.0102021018
-0.0063443187
-0.0001191133
0.0088464617
0.0021698628
0.0007802696
-0.0062989751
0.0057775095
-0.0010842420
-0.0111176186
-0.0052167631
0.0060994592
-0.0025213936
-0.0052945121
0.0025162483
-0.0052505872
-0.0021285006
0.0003092408
-0.0069694974
0.0056816546
0.0067219105
0.0001959907
-0.0111272898
0.0077743337
0.0103643485
0.0005785879
-0.0032250411
-0.0049730055
-0.0105383325
-0.0074374327
0.0042806479
-0.0008037374
-0.0052698673
0.0044196344
0.0077173074
0.0073582418
-0.0015739441
-0.0063770123
0.0006197309
-0.0059646309
-0.0016559902
0.0066622171
0.0034087370
0.0055019803
0.0032319314
-0.0027458475
0.0062608879
-0.0016429925
0.0007207308
0.0050056610
0.0055119129
-0.0037189220
-0.0018827581
0.0098246556
0.0047700694
0.0035770372
0.0039114520
-0.0069876287
0.0092972760
-0.0028427505
-0.0074588727
-0.0036793450
-0.0009403046
0.0050533060
-0.0169524151
0.0106119605
0.0015614677
-0.0034001431
-0.0086837476
-0.0106963574
0.0031169712
-0.0009765477
0.0005135947
-0.0004505549
-0.0082498319
0.0047012884
0.0024533142
-0.0097405606
0.0008167527
-0.0013652726
0.0001095586
-0.0072475962
-0.0117989529
-0.0080665111
0.0141274130
-0.0083926262
-0.0022164313
-0.0080657676
0.0059969987
0.0054231716
-0.0005228112
0.0013575232
-0.0055468695
0.0098524895
0.0025702617
-0.0105303470
0.0089008336
-0.0001500306
0.0047726253
-0.0078840780
0.0068614010
-0.0036278530
0.0063982843
0.0037288455
-0.0005831788
-0.0141314567
0.0109339928
-0.0050027318
0.0093274072
0.0054332669
-0.0088264780
-0.0085093867
0.0084071352
0.0058681504
0.0020338180
0.0099286771
0.0065580807
-0.0049699493
0.0079281108
0.0060513770
0.0006804251
-0.0036295194
0.0057251048
0.0037156022
-0.0073748576
0.0085867116
-0.0018458513
0.0038300227
0.0055993018
-0.0084620166
0.0011992175
0.0046049614
0.0116459027
-0.0035485318
-0.0040194336
-0.0036368959
0.0026046520
-0.0004245035
0.0074351666
-0.0017171925
0.0055538313
0.0001389392
-0.0119341321
-0.0059351616
0.0122033634
-0.0131602414
-0.0136134925
0.0042878551
0.0129722836
-0.0079714116
0.0047791279
0.0088532689
-0.0078489341
0.0007559465
0.0055563386
0.0031643800
0.0027079196
-0.0123522105
0.0098100433
0.0026887385
0.0096882822
-0.0004480042
-0.0061606047
-0.0043955079
0.0031509017
-0.0158306572
0.0111582837
0.0005179656
0.0075618033
-0.0072734398
0.0081648489
0.0048264394
0.0072216959
0.0034981896
-0.0002050759
0.0056027082
0.0050018324
-0.0032281884
-0.0044063925
-0.0071496022
-0.0004047373
0.0047308913
-0.0067736863
0.0039270828
-0.0057120252
0.0163340563
-0.0077282000
-0.0085550938
-0.0066538524
-0.0039671618
0.0110375727
-0.0019048766
0.0092245573
0.0008924201
0.0042673374
0.0063118637
0.0091007877
0.0046572944
0.0004781838
0.0042255849
0.0095652241
-0.0139628756
-0.0055687979
0.0070967044
0.0055314938
-0.0058278727
0.0043752021
-0.0004357484
-0.0032242176
0.0084674833
-0.0058401110
-0.0017362680
0.0109055949
0.0104078905
0.0107137950
-0.0014965981
-0.0059953737
-0.0055345735
0.0051454791
-0.0059330562
0.0072168554
-0.0096416695
-0.0036743662
-0.0040678067
0.0046900201
-0.0175184837
0.0133149617
0.0009257571
-0.0015675155
0.0081683319
-0.0055429795
-0.0043624466
0.0098825825
0.0073143817
0.0102243157
-0.0011362753
0.0042928984
0.0029160293
0.0040263699
0.0026760818
0.0087099114
0.0035287421
-0.0019485654
0.0039230937
-0.0007146671
0.0132902905
0.0030687133
0.0007057066
-0.0015744256
-0.0027829728
-0.0057835277
0.0019594273
-0.0009009645
0.0007513469
0.0122418526
-0.0015980346
0.0034237066
-0.0036547359
0.0034980677
0.0027660271
0.0097070582
-0.0144093516
-0.0125734353
0.0000478707
-0.0023715911
-0.0196960821
-0.0111457738
0.0058225404
0.0053588122
-0.0055858819
0.0086598328
-0.0035689160
0.0018967847
0.0070715733
0.0034931085
-0.0040197789
-0.0079679647
-0.0112462485
-0.0047146736
-0.0096420947
0.0131717902
0.0034921626
-0.0089610377
-0.0088973483
0.0006702454
-0.0112118585
0.0100362198
-0.0095964764
0.0061929061
-0.0034863513
0.0021867055
-0.0092400324
-0.0054020788
-0.0079706146
0.0049121294
0.0049971130
-0.0057855327
0.0069651320
-0.0049248638
-0.0078086989
-0.0085600235
0.0194429876
-0.0008308984
-0.0109848585
-0.0217253247
0.0119069613
-0.0086536350
-0.0047630591
0.0011033827
0.0135862869
-0.0073090077
-0.0035784648
0.0045542671
-0.0024817241
-0.0125936009
0.0058372834
0.0171521349
0.0016923502
-0.0081084115
-0.0072179994
0.0063764646
-0.0048342526
-0.0121532782
0.0060466538
-0.0027553488
-0.0152601191
-0.0055792238
-0.0100681450
-0.0011466843
-0.0054206872
0.0072167863
0.0074315295
-0.0010752030
-0.0003286986
-0.0086896829
-0.0128464870
0.0023143385
-0.0051582220
0.0014897912
0.0068875870
0.0002394774
-0.0037268029
-0.0171972993
-0.0121701462
0.0004931222
-0.0076099217
-0.0089168937
-0.0016984695
-0.0016385058
0.0120799418
0.0103478878
-0.0080274146
0.0038354971
0.0123873118
-0.0083323886
-0.0051742471
-0.0019146877
0.0017379901
0.0258738621
0.0180582850
0.0243451537
-0.0046077111
-0.0063033448
-0.0031747293
-0.0143119126
-0.0008300930
0.0047299670
-0.0034239082
-0.0014398841
0.0182896190
0.0016629481
-0.0184338314
-0.0017569764
0.0137610646
-0.0035376490
-0.0061939224
-0.0042050103
0.0068856999
-0.0040299285
-0.0034371171
0.0021264390
0.0019343224
-0.0132882137
0.0004141301
0.0186057663
-0.0160833503
-0.0049992797
0.0012925522
0.0128105699
0.0006221096
0.0079638505
-0.0071024789
-0.0110002759
0.0108924950
-0.0054489602
-0.0006137575
0.0078674133
0.0132239725
0.0197154709
0.0278006764
-0.0046457988
0.0020763021
-0.0061988973
-0.0120596677
0.0104990744
-0.0023361651
0.0121410431
0.0091362598
0.0171417270
0.0221225085
0.0143842639
-0.0097494333
-0.0157540293
0.0221724361
0.0153478141
-0.0005436449
0.0066776784
-0.0042180801
-0.0022942192
-0.0008530658
0.0128919927
0.0052219292
0.0005855479
-0.0114384634
0.0092042082
-0.0110128766
-0.0009180483
-0.0063639891
-0.0095143365
-0.0001621969
-0.0093502317
0.0032293716
-0.0002644383
0.0072050712
-0.0058000489
-0.0083043578
-0.0004701885
-0.0003771746
0.0050576918
0.0073158893
-0.0113027939
-0.0045404355
-0.0053474744
-0.0080589544
-0.0017364723
-0.0010620609
0.0032599544
-0.0052681119
0.0021077122
-0.0040312694
0.0072278857
0.0090211572
-0.0079681787
-0.0080448143
-0.0112947992
-0.0007768297
-0.0039288727
-0.0061928196
-0.0005441220
0.0048437141
-0.0072706360
-0.0030721590
-0.0030656750
-0.0030544058
0.0074224425
-0.0075000653
-0.0096220619
0.0146248906
-0.0024344808
0.0045162067
0.0003119565
-0.0076533056
-0.0028909802
-0.0066145189
-0.0045220811
0.0021264866
-0.0051275397
0.0067441425
0.0061220814
0.0047193930
-0.0079811777
-0.0128258198
-0.0110811829
0.0076292363
0.0039726016
-0.0096435871
-0.0002813737
0.0138106643
-0.0066713998
-0.0053034802
0.0030076367
0.0048723865
-0.0114697943
-0.0082375532
-0.0090003435
0.0093450262
0.0041538654
0.0027073134
-0.0036044891
0.0123097050
-0.0022403324
-0.0060979242
0.0147343823
-0.0078617260
-0.0090956227
0.0078946413
0.0116206763
0.0019932508
-0.0053598341
0.0198846187
0.0056739588
0.0087878490
0.0033220738
0.0032521593
0.0060843703
0.0013555831
-0.0099478405
0.0027030395
0.0140646843
0.0076015171
-0.0012542210
0.0009133381
-0.0076602589
-0.0072711816
-0.0101679276
0.0043231000
-0.0060372171
-0.0007699469
-0.0163397727
-0.0080324823
0.0079558862
-0.0005342279
-0.0121135632
-0.0052426981
0.0078341165
0.0015880762
-0.0105586377
-0.0139277210
0.0141102283
-0.0141917098
-0.0204234842
0.0125448352
-0.0079671540
0.0012280696
0.0014346234
0.0018384916
-0.0038834421
0.0144535708
-0.0048642698
0.0062103555
0.0022200728
-0.0089431086
0.0187996491
-0.0194389888
0.0152114135
0.0083897655
0.0029793332
0.0036091739
-0.0040202408
-0.0019211010
0.0007535631
0.0012643425
0.0116178546
-0.0164721784
-0.0047036927
-0.0131207305
0.0043870865
-0.0028446102
-0.0059231909
0.0121694975
0.0106902237
0.0097325117
0.0036829869
0.0041050425
0.0218473965
0.0229985063
0.0129918422
0.0074978154
0.0032891923
-0.0027304587
0.0164222249
-0.0190480269
-0.0200255011
0.0083583958
-0.0040946284
-0.0112512823
0.0129887757
0.0014147798
-0.0102009602
-0.0210676274
0.0065401329
-0.0010166363
0.0013482400
0.0161049784
-0.0057254913
-0.0021313677
-0.0030143495
-0.0079108433
0.0217816110
-0.0308337499
-0.0055830819
0.0151488304
0.0166113349
0.0198925867
-0.0190919729
0.0103264888
-0.0106173607
-0.0058800855
0.0149255867
0.0176961403
0.0001308726
-0.0177812423
-0.0203899812
-0.0098745943
0.0095478875
0.0030979735
0.0042690344
0.0176403890
0.0059818632
0.0012754128
0.0308933845
0.0046867995
0.0065885691
-0.0175309390
0.0082794622
-0.0115339697
-0.0019642911
0.0112258562
-0.0182888280
0.0194902364
0.0151164341
-0.0062772648
-0.0057148552
-0.0005537309
0.0026050385
0.0076469180
0.0051202375
-0.0232010814
-0.0031227692
-0.0078498874
0.0014145347
-0.0219965985
-0.0022464547
0.0220519894
-0.0336559682
0.0010928046
0.0230286526
0.0089474286
-0.0269661025
-0.0153005620
-0.0096659334
0.0104855122
-0.0020358082
0.0270194882
-0.0053689466
-0.0147129091
0.0051765340
-0.0022369560
-0.0017915549
-0.0130055738
0.0076456185
-0.0046946350
0.0035191583
0.0054470760
-0.0049277682
0.0121437590
0.0032141408
-0.0119172487
0.0130777796
0.0178566218
0.0050070535
-0.0121758950
-0.0103931058
-0.0237062958
0.0055799694
0.0204125880
-0.0091985764
0.0075879702
-0.0002686403
0.0054480631
0.0070269997
0.0090478374
0.0169581242
0.0107576382
-0.0180583325
-0.0004763034
-0.0121945542
-0.0013321614
0.0026023171
0.0086077790
0.0059823479
0.0069865174
-0.0034507704
-0.0099387666
-0.0084611591
0.0009156745
-0.0129815791
0.0044570977
-0.0035862312
-0.0039296604
-0.0111102256
-0.0145922110
0.0086507685
0.0052013538
-0.0081614887
0.0076298054
-0.0017623442
0.0075746369
0.0029858507
-0.0303523665
-0.0121364862
0.0146202722
-0.0146512954
0.0099592145
0.0013409988
-0.0028080507
0.0211137691
0.0122075447
0.0042475918
-0.0159774063
-0.0074919435
-0.0017357663
-0.0055747474
0.0102230176
-0.0088146794
-0.0069392407
0.0115609289
0.0007999355
0.0088275986
0.0233941607
-0.0076725519
-0.0025923937
-0.0132125703
-0.0063903271
0.0139413910
0.0079266710
0.0083285260
-0.0041122563
0.0069496872
0.0000473478
0.0069239264
0.0043844756
0.0109998049
0.0092112874
-0.0072534967
0.0078934540
-0.0036701430
-0.0044685544
0.0042865338
-0.0023581402
-0.0078074657
0.0001947713
0.0019277377
-0.0055233064
-0.0015203624
0.0066559636
-0.0019150581
0.0050454745
0.0074269846
-0.0101009484
0.0055780390
-0.0161249387
0.0116380616
0.0084271467
0.0051523511
-0.0088884025
-0.0039761913
0.0175493645
-0.0070797432
-0.0197192784
-0.0076693844
-0.0127706588
0.0064133489
-0.0036343676
0.0092562967
-0.0028756512
0.0074182383
0.0112596528
0.0071767578
0.0028700301
0.0018391240
-0.0005920953
0.0025405434
-0.0051021345
-0.0121868900
-0.0060026176
-0.0000278443
-0.0071266943
0.0001926418
0.0092786679
-0.0051230662
-0.0026434924
-0.0006512494
-0.0052407540
0.0076263320
0.0013767754
-0.0048033221
0.0071373528
0.0092315112
0.0068107711
0.0131425563
0.0132437051
-0.0074718206
-0.0024038346
-0.0021869686
0.0089622960
-0.0054974840
-0.0050543648
0.0057788792
0.0065245801
0.0038714953
0.0024624925
0.0069238323
-0.0023240972
-0.0062489012
0.0038988812
0.0055734526
-0.0088540485
-0.0017266936
-0.0030024803
-0.0002792731
0.0079505459
-0.0037589147
-0.0034723893
0.0078366625
-0.0014962141
-0.0080424759
0.0076950698
-0.0090433246
0.0083090287
-0.0018403700
0.0079916911
0.0005604887
-0.0023064140
0.0041136518
-0.0030340727
-0.0006042734
-0.0042141090
0.0030713987
0.0018196689
0.0039391916
-0.0070752813
-0.0049774563
-0.0071554658
-0.0040826137
-0.0122095573
0.0061865694
-0.0102872964
0.0088367197
0.0064951867
0.0003124911
0.0071867653
-0.0018748523
0.0093332456
-0.0041487617
0.0071221877
-0.0030867419
0.0043452255
0.0032765998
-0.0017639477
0.0083449642
0.0095639757
-0.0042490469
-0.0093434989
0.0036727669
-0.0053769147
-0.0072183298
0.0028955308
0.0023785344
0.0118044139
-0.0093658469
0.0083788324
0.0043560103
-0.0012993826
-0.0041791817
-0.0037910919
0.0028569911
-0.0093277150
0.0065736561
-0.0097914286
-0.0086020223
0.0082788004
0.0024885201
-0.0033242480
0.0056530006
0.0081007085
0.0075297701
0.0017467269
-0.0095312040
0.0044288401
-0.0068729054
0.0000742401
0.0065297003
-0.0022469131
-0.0006852762
-0.0029670798
0.0059876507
0.0077020655
0.0001771410
-0.0007618100
0.0009240143
0.0036870236
-0.0053273579
0.0028705231
0.0038111711
0.0000383567
0.0013414573
-0.0026819052
0.0131890886
-0.0183211452
-0.0061080128
0.0085926668
-0.0042428637
-0.0050890873
-0.0125547898
0.0126781540
0.0031865467
0.0041902555
-0.0136310876
-0.0067855846
-0.0020597916
0.0082176360
-0.0055013184
-0.0032255373
0.0043559938
0.0047618574
0.0036941906
0.0058988168
-0.0102658547
-0.0086378366
-0.0116380927
0.0070646678
0.0076539984
0.0062985421
-0.0032864328
0.0004641411
-0.0081885738
0.0067803825
-0.0104628807
-0.0017403663
-0.0076470657
-0.0071349201
-0.0105874719
0.0110187106
0.0026311261
0.0156972237
0.0041209421
-0.0080303707
0.0083975479
-0.0054333296
-0.0134488505
0.0020353372
-0.0010027854
-0.0121311388
-0.0066340439
0.0037440667
0.0098558293
-0.0014854718
0.0081600427
0.0050004771
-0.0032813744
-0.0099755058
-0.0037031108
0.0056563790
0.0106347412
-0.0032736009
-0.0172322679
0.0005880140
0.0040779868
-0.0095591412
0.0015509535
-0.0023597308
0.0015582152
0.0039523184
0.0085375119
0.0161181787
-0.0072460444
-0.0099090328
0.0039671815
0.0078857288
-0.0057956580
0.0006327855
0.0004289610
-0.0087310104
0.0001459801
-0.0044701736
0.0209029868
0.0304775663
-0.0184421119
-0.0032167663
-0.0097744253
-0.0065421168
0.0057574392
0.0009249682
-0.0121363958
0.0070272420
0.0069371594
-0.0013493768
-0.0041946807
0.0009103845
-0.0119441455
0.0070012686
0.0029717101
0.0113551096
-0.0106446614
0.0086962959
-0.0089266092
0.0083988407
0.0095528102
0.0010218892
-0.0128780736
-0.0069457071
-0.0076920109
-0.0129298430
-0.0055839819
-0.0024038922
0.0051368123
-0.0049411562
-0.0025610644
-0.0104668160
-0.0077006005
0.0061408581
0.0039636010
-0.0107177540
0.0163729800
-0.0058134846
-0.0162126652
-0.0086881844
0.0065852620
-0.0097293040
-0.0160862579
-0.0002384684
-0.0049337637
-0.0059483561
-0.0019805332
0.0011146965
-0.0072590549
-0.0013683098
-0.0111592674
-0.0015681903
0.0036352761
0.0100943623
0.0085388549
0.0001466158
-0.0004457662
0.0180638458
0.0157429996
0.0323159673
-0.0210051301
-0.0117508371
-0.0042569590
0.0037148289
-0.0015020204
0.0021357104
-0.0134560976
0.0101438608
-0.0074419121
0.0065197539
-0.0053284215
0.0027398055
-0.0080330432
-0.0014126407
-0.0113780043
0.0128824219
0.0037283376
0.0093944638
-0.0097277793
-0.0077071964
0.0085437912
-0.0019809950
-0.0048492004
-0.0015918287
-0.0046417039
0.0000145723
-0.0098844943
0.0007824764
-0.0051098606
-0.0052224447
-0.0025701191
-0.0042463289
-0.0011390435
-0.0044680558
-0.0148919886
-0.0046946587
0.0052987392
-0.0006196428
-0.0053109928
-0.0038236330
0.0106891103
-0.0177705546
-0.0059263802
0.0079614814
0.0012842408
-0.0067562972
0.0007523613
0.0066289360
-0.0074325822
0.0074578120
0.0022039130
-0.0030599713
0.0045031284
0.0223837398
0.0052028542
-0.0028956131
-0.0144087685
0.0122301426
0.0122671186
0.0315736805
-0.0171565836
-0.0025854154
-0.0100487576
-0.0080497141
0.0014798735
-0.0065461829
-0.0086273090
0.0082257564
-0.0053968462
0.0160644055
-0.0000441729
-0.0035505829
0.0009403685
0.0043271721
-0.0067892308
0.0122875327
0.0070376230
0.0148348166
-0.0100133271
0.0072866614
-0.0066788160
0.0037463263
0.0016700387
-0.0070785593
0.0041383646
-0.0049432439
-0.0121308398
-0.0095664471
-0.0047990286
0.0019839338
-0.0086193379
0.0029948376
0.0064605126
-0.0113017962
0.0008694922
-0.0079687987
0.0084428629
-0.0085044437
-0.0154779765
0.0038770394
0.0086361068
-0.0085227040
-0.0154884993
0.0029008964
0.0087843357
0.0084784315
0.0040728596
0.0076266354
-0.0018128511
-0.0031513224
0.0039451317
0.0009797385
-0.0108455809
0.0239183796
0.0091491608
-0.0119137149
-0.0115986158
0.0109927659
0.0266779139
0.0141989234
-0.0136452248
0.0046821361
0.0071946190
0.0043530165
0.0009648926
0.0008510837
-0.0036506351
0.0095774157
0.0031454583
0.0088848162
-0.0130135596
0.0017018846
-0.0028793242
0.0002035804
-0.0077721050
0.0050664059
-0.0024229296
0.0143617422
-0.0003105271
0.0012598881
-0.0007639393
0.0053020561
0.0010863050
-0.0078441432
0.0014694004
-0.0053284252
-0.0152028066
0.0082978143
-0.0007624995
-0.0082848483
-0.0006578609
-0.0058880365
-0.0030333246
-0.0183665339
-0.0086593946
-0.0018386356
0.0309057069
-0.0403544483
-0.0179039753
-0.0194144849
0.0083325990
-0.0269867615
-0.0174734257
0.0152955396
0.0066250081
0.0064924075
-0.0010965504
0.0046233461
-0.0021965514
0.0058876411
0.0076806678
-0.0285384662
-0.0131128341
0.0243246791
0.0291782180
-0.0110611266
-0.0406492338
0.0300020690
0.0104168636
0.0099067283
-0.0191126145
-0.0151415210
0.0083020979
0.0031688459
-0.0004391709
0.0164345836
0.0019498738
0.0033792318
-0.0207810962
0.0362707554
-0.0185504317
0.0202883454
-0.0233408166
0.0063531228
0.0097122937
0.0164824207
0.0070854370
0.0089055489
0.0117105995
0.0169744085
0.0107267697
-0.0066856248
-0.0017773314
0.0380388731
-0.0064131869
-0.0145745766
-0.0113037647
0.0029003217
0.0141366178
-0.0249901414
0.0104505209
-0.0234302128
-0.0146731727
-0.0159020772
-0.0012942383
-0.0170856400
-0.0078030560
-0.0546926325
0.0071960233
0.0215734694
0.0331329852
0.0293169519
-0.0072641647
0.0266608467
0.0255796395
-0.0191116726
-0.0026065155
0.0443512652
0.0019079968
-0.0125993657
-0.0063584495
-0.0257017494
0.0098316446
0.0312637103
-0.0027072458
0.0287314034
-0.0087721578
0.0090207268
0.0404228497
0.0604044084
-0.0363898599
0.0052188197
-0.0201552351
-0.0020538148
0.0191838920
0.0067026459
-0.0183569282
-0.0029042891
0.0255020909
-0.0129684369
-0.0159031625
-0.0146107027
-0.0321936640
0.0092104689
-0.0145738144
-0.0093600085
0.0152946295
0.0110336743
-0.0146861454
-0.0319656558
0.0071657348
-0.0207879361
-0.0014663468
0.0411117887
-0.0124893799
-0.0436112858
0.0154983791
-0.0263572447
0.0245888446
0.0196191954
0.0065259848
-0.0128561647
0.0082623962
0.0009274117
-0.0015970046
-0.0013741368
-0.0025338664
0.0127645415
0.0022721226
0.0069284852
0.0004145216
0.0194719411
0.0047537335
-0.0026083841
0.0096042095
0.0023248845
-0.0114019457
-0.0084990085
-0.0075947559
0.0124376769
0.0068501498
-0.0081285814
-0.0054369208
0.0089015516
0.0024303054
-0.0003255043
0.0021523028
0.0032585132
-0.0046204494
-0.0074331962
-0.0045924560
0.0007582339
0.0123137159
0.0109659504
0.0088595840
-0.0108419762
-0.0067053298
-0.0103645989
-0.0060598848
-0.0044473310
-0.0097404320
0.0104578845
0.0083852045
0.0054818413
0.0151327424
0.0077841700
0.0166160387
-0.0081743209
0.0012678461
-0.0146976366
-0.0135452088
-0.0043700719
0.0110081047
0.0104170357
-0.0125608340
0.0123371041
-0.0038543475
-0.0153983958
0.0043517495
-0.0011176118
-0.0006839966
0.0044622563
0.0164657149
-0.0041238391
0.0075496531
0.0123827556
-0.0327924920
0.0447553416
0.0055298732
0.0069363450
-0.0085987736
0.0435239887
0.0127165975
0.0081173215
0.0049887552
0.0103342392
-0.0097244119
-0.0027642044
-0.0131310305
0.0263120549
0.0054901624
-0.0109742548
0.0083497838
-0.0181684730
-0.0193344307
0.0040343615
0.0121924975
0.0100053927
-0.0265993535
0.0125836170
0.0305052960
0.0007425801
0.0063648245
0.0002756689
-0.0077954454
-0.0049466552
0.0027553357
-0.0232377336
0.0036123412
-0.0059568341
-0.0001481091
0.0151372905
0.0113348938
0.0182861744
0.0069452180
0.0201688276
-0.0066155919
0.0008771627
-0.0023126607
0.0045020364
0.0011194191
-0.0000323346
0.0056227729
0.0073003555
0.0023180540
-0.0054372687
-0.0052717062
0.0016572634
0.0064438228
0.0239926381
-0.0007525506
-0.0071404595
0.0989101636
-0.0525164151
-0.0066921038
0.0089059664
-0.0545422424
0.0407875166
0.0428111673
-0.0051100191
-0.0303431097
0.0133660132
-0.0020363159
-0.0722674127
0.0026163975
-0.0271062656
-0.0311728206
0.0737849326
-0.0400914803
0.0261346979
0.0031697200
-0.0305818798
-0.0267613498
-0.0197271617
-0.0645243829
0.0086715746
-0.0362587809
0.0100179888
-0.0653823905
-0.0040731138
0.0196068336
-0.0338794905
0.0284886135
-0.0221923004
-0.0080338951
-0.0184725791
0.0037668888
0.0459531643
0.0000810393
-0.0189917839
-0.0095302853
-0.0422227614
0.0188622690
-0.0413962673
0.0200612053
-0.0060756585
-0.0103020680
-0.0274259196
-0.0269901583
-0.0340814520
0.0333605775
-0.0482435019
-0.0036265743
0.0037825488
0.0077612057
0.0225158113
0.0299497714
0.0600684786
0.0378336057
0.0167017047
-0.0078343368
0.0417563749
0.0589840824
-0.0183722294
-0.0769218385
0.0603970725
-0.0384227417
-0.0129260617
0.0497313045
0.0050012754
0.0115819005
-0.0036463317
0.0051993678
-0.0776740135
-0.0345778284
0.0072153938
-0.0203309661
0.0088603182
0.0238074730
0.0037400969
-0.0018442104
0.0155346044
0.0061799901
0.0613955829
-0.0245575864
0.0018458657
0.0086399497
0.0578602226
-0.0118134306
-0.0100065319
-0.0222380309
-0.0777400169
-0.0051401413
-0.0453402285
-0.0033455267
-0.0080330460
0.0234184013
0.0589565045
0.0793076077
0.0539033635
0.0222471814
-0.0278110258
0.0350582440
0.0108464761
0.0124836412
-0.0175966570
0.0502186488
-0.0378708102
-0.0090587887
0.0404638680
-0.0183440386
-0.0130646458
-0.0331551722
-0.0243326342
0.0073365027
0.0138902373
0.0283696267
0.0605310764
-0.0015905377
0.0076124773
-0.0049295084
0.0131765505
0.0211237293
0.0222668792
-0.0210486396
0.0165071573
0.0367310328
0.0152461953
0.0315329419
0.0103653490
0.0327883033
-0.0023440320
0.0263602990
-0.0225889331
-0.0287699741
0.0259475042
-0.0139980829
0.0174307013
0.0118900150
0.0131809149
0.0002768184
0.0087776589
0.0399738193
0.0031741147
-0.0033083420
0.0143226507
0.0349367495
0.0514249723
0.0088117497
0.0077691337
-0.0411171149
-0.0191133270
-0.0221497596
-0.0358553043
0.0250384573
0.0097532109
0.0407631476
0.0440324883
0.0343513948
0.0448044461
0.0227813518
-0.0094029921
-0.0342129902
0.0046561085
-0.0113247140
-0.0044979541
0.0379290098
-0.0145705070
-0.0046537537
0.0197466864
-0.0094163111
-0.0100940179
-0.0288054136
-0.0141667197
-0.0027480322
0.0202040127
-0.0152704592
-0.0076330835
-0.0113336435
-0.0085617772
-0.0102894530
0.0152704600
0.0106460333
0.0180966998
0.0000743753
0.0031368654
0.0174110981
0.0038603665
0.0226875282
0.0253180227
0.0085664942
0.0266702653
0.0106353203
-0.0070425236
0.0022981391
0.0012312808
-0.0105553708
0.0058896647
-0.0080352422
0.0065550935
-0.0050559072
0.0120783445
0.0045206043
-0.0024309794
0.0060973932
0.0068115478
0.0364908967
0.0198359370
0.0125030260
0.0009984609
-0.0065392661
-0.0004753655
0.0054546417
-0.0067570452
0.0169427824
0.0021409147
-0.0015287960
-0.0144503938
0.0020253963
0.0030574603
-0.0058329705
0.0086345480
0.0015912236
0.0118587092
0.0005837640
0.0017772967
-0.0049557987
0.0076777614
-0.0074855632
-0.0045103606
-0.0148918251
-0.0006443043
-0.0128080987
-0.0103052634
-0.0083742118
-0.0136140754
-0.0096218610
0.0068336310
-0.0076415473
-0.0050151227
-0.0084685551
0.0157253559
0.0007793397
-0.0058842635
0.0047531845
0.0082736373
0.0027242793
0.0134750616
0.0004096899
0.0129579804
0.0080347975
0.0059109078
0.0028608693
-0.0174338005
-0.0090017430
0.0043709227
-0.0174344707
-0.0108286296
-0.0237653521
0.0095757724
-0.0024738628
0.0082544237
0.0044578138
0.0004662598
-0.0081325923
0.0011945266
0.0080532336
0.0165706413
-0.0020403109
0.0067352120
-0.0081628752
0.0000163027
0.0044230018
0.0023612568
0.0163557231
-0.0011279028
0.0043020625
-0.0055188635
-0.0003075841
-0.0062839953
-0.0036120895
-0.0067278919
-0.0032641076
0.0034391883
-0.0068331932
-0.0068162661
-0.0061910013
-0.0008054959
0.0016449909
-0.0041128739
0.0071865776
-0.0018056242
0.0038305085
-0.0080050970
-0.0021948298
-0.0004843191
0.0071431940
0.0129397347
0.0065258329
-0.0022121060
-0.0003051618
0.0113224239
0.0093744691
0.0041882441
-0.0092407039
-0.0008818638
-0.0010973637
0.0104452852
-0.0109989792
0.0064356056
0.0025254726
-0.0049299415
0.0046746942
-0.0055383874
-0.0036933090
-0.0049412793
-0.0006960223
-0.0094004781
0.0002670085
-0.0064700008
0.0046973408
0.0131694949
0.0018771720
0.0130551121
-0.0094153251
0.0083634903
0.0015302837
-0.0014294326
0.0056342294
0.0053173792
-0.0065340920
-0.0049412477
-0.0001790590
0.0045626058
0.0102555426
0.0025043579
0.0016309680
-0.0036596709
0.0024750022
-0.0065935616
0.0024279755
-0.0027859301
0.0069410368
-0.0124250327
-0.0024305800
-0.0106100594
-0.0038066315
-0.0062971566
-0.0180496772
-0.0050070166
-0.0000731092
0.0058752764
0.0078269509
-0.0030592195
-0.0058362933
-0.0117773054
0.0033790908
-0.0070545108
-0.0058680592
0.0077332198
0.0095713922
0.0007434955
0.0038701715
0.0054790923
-0.0040266874
-0.0063707448
-0.0012214735
0.0031412778
-0.0001046887
-0.0074597478
-0.0063905805
0.0004878430
-0.0083593653
0.0068861099
-0.0117932411
0.0036692789
0.0079685921
-0.0018470283
-0.0020809338
-0.0003271560
-0.0026009463
0.0058231873
-0.0000164559
0.0074206330
-0.0069098012
-0.0052734812
-0.0066953386
-0.0003522078
0.0071289296
0.0082366939
-0.0163193367
0.0041677406
-0.0077968843
-0.0107084304
0.0032199260
-0.0075748086
-0.0126138987
-0.0079755912
-0.0090781809
-0.0005086060
-0.0033225366
0.0058211980
0.0027568643
-0.0017930076
-0.0063347550
-0.0091868078
-0.0073067803
0.0048462547
0.0011562892
-0.0091106379
0.0061006042
0.0083959578
0.0092576254
-0.0029406944
-0.0060211500
-0.0111569328
-0.0132930538
-0.0031919936
-0.0000580668
0.0074425777
-0.0064517632
-0.0020682788
0.0045517149
-0.0032129833
0.0001568234
0.0021595664
0.0115681239
-0.0048728489
0.0044261346
-0.0106513891
-0.0035015700
-0.0190462972
0.0005191980
0.0053188394
-0.0051903244
0.0002198342
0.0048505417
-0.0025793945
0.0069212139
-0.0085133919
-0.0015916452
0.0057862569
0.0070666456
0.0097550091
0.0059412917
-0.0003453907
0.0020429144
0.0057679997
0.0078784907
0.0178721386
-0.0089129929
0.0061102829
-0.0048856849
-0.0085673668
-0.0103814137
-0.0006631411
-0.0110685803
-0.0031461724
-0.0040521519
0.0122948288
0.0056465018
0.0047324332
0.0007794716
-0.0018844508
-0.0082587762
-0.0024647935
-0.0005761565
0.0069188021
0.0056964217
-0.0018802008
0.0099872200
0.0067187899
0.0045381174
-0.0087993216
-0.0071327051
-0.0118946353
-0.0149276269
-0.0081516213
-0.0094609255
-0.0015245377
-0.0034732297
-0.0012347658
-0.0090367571
-0.0033398110
-0.0037390402
-0.0120831427
0.0112778271
-0.0043032006
-0.0057070021
-0.0023706926
0.0107333108
-0.0188117821
-0.0093753023
0.0004802640
0.0052321562
0.0123005680
-0.0005425116
-0.0040106716
-0.0094762463
-0.0023749784
-0.0000171985
0.0051345187
0.0017436682
0.0087634092
0.0083105324
-0.0051186733
-0.0176659010
0.0019845018
0.0227953395
0.0208438605
-0.0078949186
-0.0128651150
0.0112591492
0.0022760574
-0.0006122542
0.0059190098
-0.0029618997
0.0074707878
0.0025337533
0.0061797478
0.0004568836
0.0037548783
0.0020327497
0.0062165586
-0.0027321246
-0.0056423756
0.0031480384
0.0031237797
0.0003361847
0.0071503760
0.0054322825
-0.0052452878
0.0011199759
0.0036770634
-0.0038150345
-0.0036871845
-0.0171888735
-0.0121109797
-0.0054742135
-0.0050424772
-0.0032283630
-0.0110291569
-0.0018146614
-0.0104524777
-0.0120822650
-0.0032298948
0.0155079930
-0.0100672635
-0.0135444052
0.0015208594
-0.0037383058
-0.0095639920
-0.0102788344
0.0042707969
0.0059164157
-0.0033527723
-0.0082203512
0.0037655242
0.0032439379
0.0039058506
-0.0109350437
0.0085571513
-0.0127713330
0.0291075853
0.0165314125
-0.0030443629
-0.0070707913
0.0127722901
0.0095022326
0.0158811849
-0.0107889405
-0.0122465703
0.0020609086
-0.0047209175
0.0038546457
0.0073229786
-0.0018521561
0.0055312266
-0.0010002976
0.0088911939
0.0020905429
0.0011198671
-0.0111902338
-0.0045101350
-0.0094331793
-0.0018642626
0.0000889184
0.0129918491
-0.0006831360
-0.0057593579
0.0126385176
-0.0043048402
0.0095845149
-0.0091207307
-0.0081296784
-0.0049826943
-0.0053727914
-0.0043600370
-0.0073025708
-0.0013632756
0.0051162885
0.0000568953
0.0010211348
-0.0112656241
-0.0119792980
-0.0096028372
0.0042957495
-0.0069950618
0.0045051094
-0.0014272893
0.0023826301
-0.0167072664
-0.0144430567
0.0088784208
-0.0130913705
-0.0068140202
0.0098753082
0.0129966801
-0.0041845256
-0.0100127766
-0.0043816722
-0.0025092372
-0.0022888476
0.0309849142
0.0192569115
-0.0039335953
-0.0032134923
0.0000528353
0.0168103881
0.0085756263
-0.0199378400
-0.0108213168
0.0051357402
-0.0020312811
-0.0047203746
0.0062053998
-0.0001300052
-0.0024738896
0.0083815856
0.0036892405
-0.0079307479
-0.0073264360
0.0045468620
-0.0039415513
-0.0063350837
-0.0005565537
0.0054596064
0.0037639471
-0.0010827287
0.0069684520
-0.0025021667
0.0032006636
-0.0040702504
-0.0021072929
-0.0143684695
-0.0003181729
-0.0009631261
-0.0002867808
-0.0063770139
0.0012710274
0.0186683626
-0.0057992624
0.0060376866
-0.0171031163
-0.0121611745
0.0130954505
0.0178134378
-0.0478661936
-0.0030254556
-0.0217085445
0.0155189709
-0.0284864172
-0.0138538446
0.0272318930
-0.0063069181
0.0053034623
0.0113116033
-0.0051050769
-0.0161657482
-0.0079639358
0.0175573098
-0.0120371658
-0.0100376066
0.0172051108
0.0387527350
-0.0259855963
-0.0378298024
0.0453055313
0.0226183779
-0.0061124001
-0.0350735114
-0.0038546468
0.0222273875
-0.0088626258
-0.0031098755
-0.0023825185
0.0107938603
0.0046401640
-0.0107294480
0.0397470060
0.0024742343
0.0066689477
-0.0109616436
0.0041517851
0.0084758596
0.0131436454
-0.0033611065
0.0016486307
0.0167273963
0.0079131828
0.0022122539
0.0011997854
-0.0030261978
0.0419590386
-0.0020251623
-0.0193168964
-0.0222260230
0.0038703307
0.0268396709
-0.0385821947
0.0028701624
-0.0186174599
-0.0253611560
-0.0014278996
-0.0067945646
-0.0299826264
-0.0041166621
-0.0667590819
0.0139086038
0.0101036983
0.0399578372
0.0166613652
-0.0198732604
0.0120106187
0.0207935920
-0.0199116062
-0.0094157975
0.0321384027
0.0005368369
-0.0158582866
0.0025200656
-0.0153751081
-0.0124223644
0.0161050913
-0.0007757354
0.0318144441
0.0006628026
0.0274089984
0.0307525569
0.0517967558
-0.0462696759
-0.0035375598
0.0023449259
0.0282460722
0.0354535178
0.0009021786
-0.0107569483
-0.0040397133
0.0483842224
0.0001702186
-0.0282122390
-0.0359035181
-0.0061681221
-0.0030021525
-0.0264166069
0.0145024560
0.0248848610
0.0103380365
-0.0160950935
-0.0330418220
-0.0067736820
-0.0078239409
-0.0046754291
0.0471420861
-0.0148763195
-0.0477236063
0.0234724300
-0.0369323352
0.0006637475
0.0184550554
-0.0094420389
-0.0011774761
-0.0057073306
0.0113650042
-0.0083980018
0.0019929372
-0.0037770214
0.0069200589
0.0104848700
0.0181106671
-0.0061528837
0.0010510382
-0.0051414499
-0.0043014702
-0.0056481994
-0.0080584141
-0.0139246461
0.0097130628
-0.0103844751
0.0150527480
-0.0016752654
0.0039017830
0.0004500412
-0.0085716658
0.0036987681
0.0094588018
-0.0026861515
0.0033091845
-0.0134363423
0.0148675438
0.0055005416
0.0103519594
0.0061429195
0.0133604668
0.0108230770
0.0003497308
-0.0079717609
0.0077656216
-0.0040885216
-0.0101001002
-0.0020144576
-0.0058119389
0.0070559877
0.0118767568
0.0059648972
0.0114206604
0.0051293801
0.0037248159
0.0002367511
0.0073066320
-0.0056605960
0.0052159886
0.0195114132
0.0308895908
-0.0094262512
0.0099215967
0.0085677599
0.0012242355
0.0049149251
0.0037717785
-0.0087818499
0.0078461296
-0.0030900414
0.0022982010
0.0094536022
-0.0078691200
-0.0215428078
0.0519243944
-0.0137041295
0.0180533742
-0.0037127336
0.0310660310
-0.0025894482
0.0133509600
-0.0031764541
0.0105894504
-0.0095448148
-0.0132803527
-0.0024142290
0.0265824881
-0.0033496528
-0.0115504226
0.0202931835
-0.0153184261
-0.0187085789
0.0178042199
0.0104622002
-0.0017830565
-0.0168663499
0.0022285564
0.0096065596
0.0211740693
0.0070126717
-0.0009657776
-0.0023662592
0.0028636075
0.0061500952
-0.0259189079
0.0002792601
-0.0189900296
-0.0159578182
0.0116855784
0.0133891635
0.0114830374
0.0034304150
0.0341113067
-0.0050821455
0.0075888310
-0.0056363089
0.0004811476
0.0003976876
0.0073162443
-0.0117640237
0.0064066743
-0.0008869935
0.0112566475
0.0004409132
-0.0034285975
0.0087621451
0.0116681981
0.0025476170
0.0015039522
0.0675806615
-0.0540919855
0.0082034732
-0.0028404918
-0.0454383548
0.0710725786
0.0435663439
-0.0032111647
-0.0559358734
0.0310277038
-0.0106594117
-0.0703868096
-0.0092288686
-0.0120664297
-0.0521771913
0.0634048077
-0.0324258486
0.0423711586
0.0066455115
-0.0265748276
-0.0229499661
-0.0112540123
-0.0777829196
0.0162745354
-0.0328531287
-0.0048131652
-0.0881996469
0.0011490541
0.0214993703
-0.0573084530
0.0174146285
-0.0233126826
-0.0128410064
-0.0171286756
0.0251696709
0.0563411583
-0.0013887430
-0.0260096651
0.0158757142
-0.0308689473
-0.0083263411
-0.0201438339
0.0187188191
-0.0057732197
-0.0364004123
-0.0204293226
-0.0385825384
-0.0551816552
0.0377679846
-0.0771566951
0.0110349736
-0.0030203275
0.0203762376
0.0301668782
0.0275740310
0.0249395180
0.0425873487
0.0103194065
-0.0037141557
0.0471697485
0.0447389463
-0.0113516031
-0.0622389005
0.0550309976
-0.0403642861
0.0181684916
0.0378116152
0.0272129078
-0.0059383890
0.0078122373
0.0210699410
-0.1068809638
-0.0358491809
-0.0032136360
-0.0166807388
-0.0083553896
0.0091778727
-0.0026401224
0.0189016117
0.0392182080
0.0339281163
0.0542675593
-0.0268552639
0.0179879501
-0.0008984498
0.0378610599
-0.0033931137
-0.0132915561
-0.0253025442
-0.0918359506
-0.0223948438
-0.0482525402
-0.0069041462
0.0365027206
0.0503364569
0.0210164043
0.0685051490
0.0358553007
0.0333363294
-0.0354517591
0.0268095684
0.0227211349
0.0325790523
-0.0166209787
0.0584495106
-0.0388317764
-0.0237397309
0.0396242276
-0.0131495770
-0.0223933937
0.0065623843
-0.0038221297
0.0362151634
0.0361821447
0.0489529602
0.0446402613
0.0105267537
0.0316172026
0.0045346571
0.0259654089
0.0184676842
0.0401578700
-0.0064303084
0.0180036105
0.0509459615
0.0263740345
0.0316523800
0.0156853369
0.0121110649
-0.0163331616
0.0098183376
-0.0299490945
-0.0075056479
0.0298133343
0.0044607768
0.0182426405
0.0168493948
0.0057257553
0.0068027977
0.0017427232
0.0538769506
0.0030067002
-0.0029290375
0.0076088989
0.0092683429
0.0286761604
0.0245178161
-0.0069018575
-0.0576248759
-0.0408325190
-0.0205998416
-0.0526079546
0.0133801961
0.0160701331
0.0453264430
0.0323717030
0.0276969446
0.0370060121
0.0114884283
-0.0009215787
-0.0309484815
0.0021829400
0.0142581086
-0.0168860564
0.0134820576
-0.0190451982
-0.0100747222
0.0145187070
0.0058904003
-0.0041036496
0.0159257209
-0.0022975997
0.0416661705
0.0287487049
0.0021321059
-0.0177453263
0.0135144995
-0.0015774173
-0.0061128659
0.0140562662
0.0156676407
0.0203413349
-0.0047387190
0.0107957677
0.0204539004
0.0243471531
0.0250813746
0.0129784782
0.0075435891
0.0160595514
0.0011187145
-0.0072802558
0.0131721238
0.0152020423
-0.0111195298
0.0027928449
0.0007532066
-0.0056427248
-0.0061922483
0.0193381695
-0.0025934945
0.0030658468
0.0084256698
-0.0093730902
0.0288097262
0.0175074212
0.0053517056
-0.0124292133
-0.0165721830
-0.0061465764
-0.0159611611
-0.0154250836
-0.0007166326
0.0105947422
0.0239051873
-0.0232290304
0.0071881321
-0.0070556653
0.0034768099
-0.0090827543
0.0043695831
-0.0006999958
0.0139773332
0.0195457676
-0.0099040727
-0.0018809691
-0.0032176901
-0.0189401800
-0.0238829305
0.0143464887
0.0041123483
0.0051335037
-0.0025805908
-0.0086954159
0.0075594307
-0.0118801092
0.0049886919
0.0066683475
-0.0116613376
0.0041206119
0.0034923805
-0.0019510382
0.0097902057
-0.0065017406
0.0020076383
0.0030248806
0.0067392184
0.0107234596
-0.0033511126
0.0085836035
0.0034514358
-0.0068980721
-0.0113001767
0.0045974029
-0.0206030167
-0.0119235773
-0.0075082195
0.0110465536
0.0113384911
0.0115294379
-0.0057101747
0.0105744775
-0.0102506283
-0.0005226325
0.0111659698
-0.0037307754
-0.0045403940
0.0086908882
-0.0107162067
-0.0036070765
-0.0061361251
-0.0100899986
-0.0013479381
0.0021725438
0.0130877709
0.0000628606
-0.0017666819
-0.0038103094
-0.0022695921
-0.0027735546
-0.0067450882
-0.0144132829
-0.0010648521
-0.0018591727
-0.0065811370
-0.0087823516
0.0111366344
-0.0089385638
-0.0035928839
-0.0074873616
0.0016118651
-0.0125163609
0.0032004135
0.0021512400
0.0020999841
0.0078627799
-0.0114541926
0.0052124545
-0.0046464427
0.0096570536
0.0106431692
-0.0042463401
-0.0013814133
-0.0094354091
0.0009055155
0.0129331370
0.0063524847
0.0121361388
0.0034180691
-0.0052422482
-0.0109028753
0.0053124688
-0.0027935312
0.0006226483
-0.0013144348
-0.0034635397
0.0036996750
-0.0029655806
0.0111149560
0.0048967028
0.0061767830
0.0082716108
-0.0045471518
-0.0071548081
-0.0153869593
0.0071860116
-0.0014874783
-0.0016136377
0.0038212532
0.0015594866
-0.0087762835
-0.0026676829
-0.0080096507
0.0016725438
0.0021928580
-0.0042745293
-0.0027948601
0.0022720081
-0.0109748284
0.0086851740
0.0091216020
-0.0092296587
-0.0045383649
0.0008198978
-0.0006238633
0.0017583826
-0.0006335364
0.0032411058
0.0063117968
-0.0013838335
-0.0032539062
-0.0132717810
-0.0067001558
-0.0058606499
0.0062328375
-0.0057392718
-0.0035001520
-0.0000745826
-0.0025665729
-0.0020990555
0.0061881404
-0.0046628187
0.0053013851
0.0058842069
0.0052630946
-0.0069958626
-0.0058007975
-0.0001386988
0.0049997544
-0.0014591183
-0.0018529094
0.0035536164
0.0036843005
-0.0015873461
0.0048153662
0.0030097025
0.0056615942
-0.0088464197
0.0089782088
-0.0085230438
-0.0032033058
0.0012086793
-0.0014534928
0.0084437235
0.0020383888
0.0049205400
0.0118867614
-0.0044341816
0.0014495512
-0.0007012176
0.0039095304
-0.0103190416
-0.0037900043
0.0034928717
0.0089019491
0.0045138592
0.0081020688
0.0013197127
-0.0022666819
0.0051894709
-0.0014685650
0.0051621017
-0.0089056603
-0.0043969985
0.0002505006
0.0051861162
0.0085967074
-0.0027898309
-0.0000349485
-0.0094749376
0.0083957229
0.0027200176
-0.0004932452
-0.0081452224
0.0080866707
-0.0091648214
0.0049431294
0.0094495655
0.0075131584
-0.0016356850
-0.0096429894
-0.0029834751
0.0081810492
0.0010442847
0.0102312336
0.0018875543
-0.0047593904
-0.0099064875
-0.0002474295
-0.0039581244
-0.0021378791
-0.0061293342
0.0068546379
0.0063395718
0.0082664202
-0.0071574557
-0.0094431738
-0.0070824813
-0.0022809512
-0.0063412938
-0.0050064417
0.0096549770
0.0037719273
0.0004554400
0.0030482769
-0.0005518897
0.0188441705
0.0050077608
-0.0081570894
-0.0051390710
0.0053016280
0.0009903705
-0.0072771834
0.0029134055
-0.0092999399
0.0087534633
-0.0008387072
-0.0010168644
-0.0062788338
-0.0069109766
-0.0042449256
-0.0099980030
-0.0092019243
0.0098889025
-0.0056484034
0.0024837512
0.0059920875
0.0080806943
-0.0085234218
-0.0044844514
0.0032776689
-0.0047848971
-0.0017263695
-0.0013582722
0.0003042835
-0.0002904468
0.0009477939
0.0089834282
0.0013026702
0.0076627116
-0.0062088335
0.0063258361
-0.0057118954
0.0051852094
0.0007650119
-0.0038507264
0.0033470077
-0.0042142493
0.0095994883
-0.0006003603
-0.0026869614
-0.0072540319
-0.0025928524
-0.0000733009
-0.0007204014
-0.0048568565
-0.0066708411
-0.0061036572
0.0052579734
0.0089673978
0.0072155648
0.0099201499
-0.0124620781
0.0040699705
0.0114935633
-0.0092434777
0.0003965071
0.0173713834
-0.0103842837
-0.0001200692
0.0034491482
0.0022476424
-0.0049293709
0.0019125851
0.0066024453
0.0054451575
0.0028928150
-0.0031735394
-0.0051391452
-0.0018835364
0.0071602027
0.0001622673
0.0014806524
0.0002341704
-0.0082259471
0.0116560797
-0.0039049761
-0.0076457902
0.0004976497
-0.0018160499
-0.0094858738
0.0072486247
0.0063435665
0.0054384677
-0.0088652134
-0.0018112826
0.0047133732
0.0062122362
-0.0038958038
0.0056122992
-0.0096597627
-0.0012772493
0.0068709104
0.0008723109
0.0070751742
-0.0083745697
-0.0038956243
-0.0006272707
-0.0046042925
-0.0026214591
0.0002985460
0.0009433123
-0.0040480573
-0.0062909077
-0.0063171221
0.0045412836
0.0045339386
0.0089138764
0.0065766393
0.0065051498
-0.0080418863
0.0123299836
-0.0127778415
0.0021689849
0.0019047419
-0.0153016205
0.0112533884
0.0022461420
-0.0069226415
-0.0041201649
0.0004158103
-0.0053458566
-0.0047347537
0.0013713731
0.0017043126
-0.0091488196
0.0051860148
0.0075923697
-0.0020518865
0.0050567753
-0.0056309872
0.0065152455
-0.0068803723
-0.0071356148
0.0054520432
0.0031940850
-0.0066506112
0.0037781782
0.0045081845
-0.0078349527
0.0054314361
-0.0055488413
-0.0016505174
0.0068559161
0.0065866918
0.0091129257
-0.0055197285
-0.0064745555
-0.0087551249
0.0069895253
-0.0094788421
-0.0002415664
-0.0017059190
-0.0003225657
-0.0067076238
0.0023075383
0.0057065205
-0.0107469153
0.0106130572
-0.0145523080
-0.0016364638
-0.0015458586
0.0042074749
0.0059853221
-0.0016408633
-0.0002659973
-0.0033980719
0.0015370433
-0.0094791123
0.0034486803
-0.0028767618
-0.0059627936
0.0004395688
-0.0034737513
-0.0026972532
-0.0148546219
0.0096243637
0.0076273282
0.0012019555
0.0063360487
-0.0046910093
0.0056925056
0.0029749161
-0.0020293787
-0.0081199652
-0.0055381579
0.0061002805
0.0028910278
-0.0044361377
0.0081725855
0.0010977576
-0.0063140896
-0.0012349956
-0.0058642130
0.0048535428
0.0100407667
-0.0027364470
-0.0043890622
0.0055236261
0.0011718497
0.0011018326
0.0033833183
0.0021407312
-0.0022237310
0.0037008923
-0.0022920530
0.0078085121
-0.0010809051
0.0015486372
-0.0017164123
0.0112659864
0.0022140673
0.0089857157
-0.0064492773
-0.0004779252
-0.0050477678
-0.0013592484
-0.0063673031
0.0094139971
-0.0013928407
0.0062346837
0.0063520510
0.0078181838
-0.0083634145
-0.0052313360
0.0023457338
-0.0044069708
-0.0138346167
0.0040315474
-0.0014416004
0.0034994199
-0.0029535657
-0.0040573218
-0.0098246528
0.0046585406
-0.0116206224
0.0163312962
0.0062264302
-0.0053644411
-0.0039831668
-0.0005751431
-0.0121238840
0.0065321526
-0.0066754211
-0.0055480757
0.0021236636
-0.0061958713
0.0077456334
0.0050378438
-0.0026488020
-0.0100188955
0.0045044894
0.0069441518
0.0050352377
0.0055740771
-0.0053042742
0.0097448338
0.0075466726
-0.0092797007
-0.0000962780
0.0115400988
-0.0051747489
-0.0061166038
-0.0104942360
0.0070076733
-0.0038877524
0.0068704428
0.0023793965
-0.0022214862
0.0080685101
0.0092805327
-0.0014529561
0.0077043243
0.0074602322
-0.0071717251
-0.0016735506
-0.0054283498
0.0159981324
-0.0053710844
0.0054457468
0.0106965905
-0.0041119610
-0.0041344050
-0.0080596474
0.0083138693
-0.0114249385
-0.0085273897
0.0039217583
-0.0045891483
-0.0173807839
0.0151578703
-0.0147179541
-0.0071045767
-0.0049396111
-0.0131799320
0.0054409471
0.0103449830
0.0179950221
0.0018355262
-0.0084014368
-0.0070432752
0.0004547595
0.0035255069
0.0122522207
-0.0126094659
0.0092936786
-0.0032868057
-0.0052545391
-0.0063506187
0.0033672051
-0.0168218978
0.0151839858
-0.0086346952
0.0094262287
-0.0020633106
-0.0003738972
-0.0076978008
0.0221902095
-0.0073433852
0.0027984126
0.0063572674
0.0041418859
-0.0013317479
-0.0115911857
0.0080491045
-0.0017192051
0.0059818638
0.0051903391
0.0028898101
0.0014747003
0.0068096460
0.0033525493
0.0121379181
-0.0003113874
-0.0036623270
-0.0058014159
-0.0034995187
0.0105125406
0.0042293517
-0.0030077907
-0.0000629181
0.0063999564
-0.0011858384
0.0056925402
-0.0044120215
0.0068119832
0.0059462612
0.0066169118
-0.0067404087
-0.0068336186
-0.0078320371
-0.0110304120
-0.0082637847
0.0067309829
0.0060833917
0.0056206329
-0.0043299737
0.0040124914
-0.0022216835
-0.0083036160
-0.0063679165
0.0120024576
0.0001248018
-0.0097518877
0.0006138711
-0.0111236544
0.0052201135
0.0050488632
0.0054611901
0.0054946022
0.0066035834
0.0078533865
0.0007779531
-0.0046757723
-0.0048354540
-0.0044314235
0.0095318230
0.0024341870
-0.0096377069
-0.0068207436
-0.0012798687
0.0004412871
0.0062872163
-0.0013655329
-0.0053457807
-0.0008682561
0.0009958976
0.0078132627
-0.0012700772
0.0000878339
0.0102096471
-0.0197672269
-0.0171869361
0.0094658901
-0.0068257181
0.0059483153
-0.0001514894
-0.0068798240
0.0099214749
0.0071111021
0.0030662301
-0.0093715116
0.0039320741
0.0033209846
-0.0028647070
-0.0084005591
-0.0021925975
-0.0071191243
0.0003076467
0.0019013171
0.0082538587
-0.0079739717
-0.0009268617
0.0110306819
0.0127640393
-0.0048186052
-0.0060659240
-0.0129731841
0.0021914352
0.0136514878
0.0055415647
0.0079135557
0.0014878418
0.0050129227
-0.0017294845
-0.0169876413
-0.0019767108
0.0021168163
-0.0069030326
0.0034159179
-0.0093540607
-0.0093157762
0.0028740823
0.0040745446
-0.0075638754
-0.0022924958
-0.0017154776
-0.0013504924
-0.0015790801
0.0007867026
-0.0019890633
0.0069263949
-0.0044628452
0.0002192830
0.0025357173
-0.0074192620
0.0020251913
-0.0000764685
-0.0062659027
0.0052478475
0.0162707961
0.0022534569
-0.0015826820
0.0138090661
-0.0015535979
0.0041258243
0.0102991129
-0.0233610223
0.0158662124
-0.0091035645
0.0078736919
-0.0011180046
-0.0128581397
0.0198216358
-0.0031272699
0.0018295938
0.0077922974
-0.0077689394
0.0042440662
-0.0120665577
-0.0120965661
-0.0033614625
-0.0011082062
-0.0001488381
0.0105994997
-0.0005363435
0.0029172528
0.0057076148
0.0192083159
0.0060686200
-0.0118009813
-0.0002869643
0.0119394053
-0.0103166440
0.0097830121
0.0039450976
0.0001644243
0.0144029832
0.0087161228
-0.0052675502
0.0008316345
-0.0009654059
0.0025461208
-0.0050928247
-0.0051666363
-0.0083795606
0.0024412528
-0.0034393207
0.0034714037
-0.0063047375
-0.0110558863
-0.0071516922
0.0019883403
0.0044404360
-0.0021079995
0.0076913663
0.0130352663
0.0034944305
-0.0048583728
0.0000597131
0.0043272523
0.0046374400
-0.0173401426
0.0112862336
-0.0197567743
-0.0066937530
0.0172566456
-0.0121330472
0.0124448190
-0.0092926764
0.0060250575
-0.0127083783
-0.0083458693
-0.0004557203
-0.0014453953
0.0139729585
0.0030165292
-0.0109984988
0.0050919183
-0.0038217480
0.0102983700
-0.0026301898
0.0078215038
0.0060483714
0.0143852200
0.0146278478
0.0021897463
0.0137138108
-0.0032468181
0.0000729273
0.0160339112
0.0045457419
0.0212148620
-0.0029832461
0.0014596720
0.0160685086
0.0125183283
0.0055600572
0.0212213533
-0.0047556506
0.0038298967
-0.0044645751
-0.0059472965
0.0025738080
-0.0044117861
-0.0082312936
-0.0043763233
0.0004024064
0.0015999618
0.0180371180
-0.0096429386
-0.0062767916
0.0024338260
-0.0014113828
-0.0006288580
0.0173842733
0.0155795186
-0.0111953487
-0.0108667372
-0.0145349377
-0.0039618553
-0.0069092301
-0.0037971222
0.0010916731
0.0024750910
-0.0037018756
0.0085273668
0.0024329241
0.0094783884
-0.0129022265
-0.0029492611
-0.0134921894
0.0027883632
-0.0155155005
0.0061937659
0.0088683925
0.0052204155
-0.0030387520
-0.0051100731
0.0130286280
0.0110600791
0.0077294787
-0.0090084739
0.0034645479
0.0008181601
-0.0033310210
-0.0023954714
0.0083161035
0.0022066767
-0.0126467349
-0.0072599505
-0.0114121617
0.0103757591
-0.0111647616
0.0116722398
0.0137165125
0.0059824700
0.0034622539
0.0147731380
-0.0129545964
-0.0055653050
-0.0194692073
-0.0009093132
0.0012681563
0.0017986331
0.0006579432
0.0056709953
-0.0051953274
-0.0040247291
0.0081933540
-0.0048373630
-0.0068431860
0.0029140250
-0.0002453696
0.0046778096
-0.0023503320
-0.0164008918
0.0003455728
0.0058628852
-0.0003749586
-0.0082889981
0.0087801901
0.0094640769
-0.0030655816
0.0013526477
-0.0028687771
0.0052216501
0.0122890961
0.0079156458
0.0081112034
0.0031919792
-0.0042327411
0.0053418709
-0.0107270278
-0.0054799023
0.0056898046
0.0082288676
0.0077583222
-0.0018499258
0.0039273358
0.0000266177
-0.0027679137
0.0042115134
-0.0031788716
0.0000585524
0.0124330097
-0.0146893696
0.0021768783
-0.0083640668
0.0018748462
-0.0072309836
-0.0049620078
0.0030018552
-0.0018347333
0.0068750577
0.0012291512
0.0148363053
-0.0000457837
0.0085829247
-0.0057752216
0.0034956020
0.0070819282
0.0044321170
-0.0045232529
0.0134777048
-0.0006459050
0.0099534478
-0.0013290715
0.0005565891
0.0104083493
0.0007152194
-0.0077144126
0.0018709432
0.0043618466
-0.0149818255
0.0068794642
-0.0060364122
0.0112197039
-0.0031515623
0.0069507252
0.0004080204
-0.0038944080
-0.0090615264
0.0050454485
0.0007097573
-0.0046186251
0.0086818545
0.0004807853
0.0086864693
-0.0018390265
-0.0035421851
-0.0027979346
0.0082275828
0.0006245451
-0.0028533582
-0.0032843305
-0.0025170919
0.0016651589
0.0069555167
0.0091806781
-0.0065718677
0.0047741537
-0.0046609575
-0.0039919991
0.0010163589
0.0021100968
-0.0051749797
0.0070556594
-0.0035114793
0.0024740481
0.0085441676
-0.0092362228
0.0025904103
0.0058255063
-0.0113666289
0.0015713591
0.0090179369
-0.0006408436
-0.0018080285
0.0067526292
0.0048946507
-0.0058104208
-0.0010483766
0.0041922085
-0.0007534410
-0.0048092625
-0.0039183526
-0.0056484644
-0.0109795484
0.0012706429
-0.0029460436
-0.0058002217
0.0021818149
-0.0085737228
0.0008199712
-0.0023093992
-0.0039923229
-0.0000246030
0.0074013486
-0.0049416097
-0.0109036165
0.0066004353
-0.0035642864
-0.0048622612
-0.0054314999
0.0057078542
0.0006676436
-0.0021317922
0.0057509243
-0.0012453020
0.0048697899
0.0078676285
-0.0008574418
0.0012251190
0.0092481383
-0.0048668090
0.0041519323
0.0033524700
0.0020229059
0.0113947516
-0.0018866572
-0.0065873724
-0.0028564388
0.0091332228
0.0052651986
0.0016927728
-0.0060673228
-0.0066452576
0.0102896681
0.0101275621
0.0089145779
0.0029554995
-0.0050956384
-0.0039993892
0.0051052634
0.0032418840
-0.0030914106
0.0068692666
-0.0012230479
-0.0042956508
-0.0091885598
-0.0091698020
-0.0070968536
0.0061054107
-0.0000154503
-0.0069546775
-0.0036281570
-0.0048109274
-0.0090548766
0.0091794254
-0.0112876158
-0.0015969450
0.0123831568
0.0005253396
0.0076703292
-0.0071894622
0.0014163292
-0.0041404847
-0.0015797965
0.0065227982
-0.0063055700
0.0065776557
0.0065021468
-0.0088444475
-0.0007782937
0.0060490741
-0.0014117777
-0.0002230622
0.0078859706
-0.0071484567
-0.0057564534
0.0004420549
-0.0062534911
-0.0024866854
-0.0054031416
0.0068776288
0.0032201631
-0.0040842731
-0.0023085206
0.0055913524
-0.0010054524
-0.0002772457
-0.0138120924
0.0035397626
-0.0013028423
-0.0144924072
0.0083129585
0.0098718483
-0.0067235242
0.0001354889
-0.0089360614
-0.0039250395
-0.0073336345
0.0011684833
0.0025106930
-0.0002080857
0.0072053260
0.0071014374
0.0039044222
0.0040413990
-0.0011357549
0.0006687652
0.0025034967
0.0077557814
-0.0010796358
0.0085727787
-0.0053231488
0.0075899272
-0.0037796735
-0.0028859216
0.0039476990
0.0039547180
0.0021476537
-0.0050125778
-0.0083446297
-0.0035421783
-0.0061184724
0.0017577543
0.0068141020
-0.0066222996
0.0026437369
-0.0094303832
-0.0078498114
0.0087428994
-0.0118439878
0.0009458054
0.0091607437
0.0080199089
-0.0094609995
-0.0020557735
0.0087322847
0.0076301780
0.0091075019
-0.0112969850
-0.0020528425
-0.0035759921
-0.0088986596
-0.0031011336
-0.0015897649
-0.0044299067
0.0086327378
0.0004094722
-0.0070063692
0.0086941335
0.0063918872
-0.0148418768
-0.0010814955
0.0101128807
0.0050147780
0.0097980168
-0.0096281539
-0.0084200558
-0.0085171116
-0.0018930878
-0.0033663865
-0.0078605194
0.0036550077
-0.0003738811
0.0082932761
-0.0020473447
0.0027863950
0.0082005931
-0.0053554668
0.0031183365
-0.0051093357
-0.0035025010
-0.0066648165
0.0038594214
-0.0069062574
0.0001782556
0.0050889775
0.0000201462
-0.0042271591
-0.0008602753
0.0062157026
-0.0002339418
-0.0051077575
-0.0081528069
-0.0059571304
-0.0052156225
-0.0085437747
0.0082355535
0.0100635992
-0.0048263404
-0.0128235090
0.0174700094
0.0013274362
0.0043675145
-0.0036328239
-0.0063568935
0.0042263990
-0.0111936177
-0.0012501089
0.0023351617
-0.0057530821
0.0054415016
-0.0058455290
-0.0011850809
-0.0070705758
0.0062661807
-0.0051951240
-0.0018376960
-0.0009292206
0.0099838091
-0.0003197753
-0.0158472945
-0.0021428566
-0.0045162660
-0.0058210544
0.0061580704
-0.0094518088
0.0059500468
-0.0041329059
-0.0043833912
0.0086823754
0.0105867089
-0.0067658047
-0.0031692537
0.0101513037
0.0034338548
-0.0015687953
-0.0080370558
-0.0052145312
0.0095074393
-0.0054965516
0.0092086585
-0.0001261275
-0.0021344454
-0.0054793758
-0.0011072523
-0.0062825531
0.0032412443
0.0026076164
-0.0091401361
-0.0086250159
0.0067937553
-0.0085202656
0.0002189902
-0.0085606836
0.0068521900
-0.0041980584
-0.0072066464
0.0083160798
0.0080309898
-0.0030790052
0.0161477673
0.0051738456
-0.0007232082
0.0010244798
0.0071780417
0.0026785269
-0.0057126067
0.0044196343
-0.0051525550
-0.0033409299
0.0009470376
0.0030334766
-0.0095221771
-0.0053842664
0.0098780984
-0.0042980498
0.0158064290
-0.0027310915
0.0095478756
0.0163536946
-0.0105025217
0.0070847191
-0.0029739784
0.0034658555
-0.0069473461
-0.0005991823
-0.0022223106
-0.0025574556
-0.0089026495
-0.0100558636
0.0099917791
-0.0011222723
0.0048379210
0.0077038471
0.0102394063
0.0085338034
-0.0090446841
-0.0022857420
-0.0058053054
-0.0000380821
0.0061649782
0.0068604798
-0.0085235633
0.0017334797
-0.0028673370
0.0043082538
-0.0062365504
0.0023590802
0.0029472511
0.0052537069
-0.0091274255
-0.0052970966
-0.0077300026
-0.0067186034
0.0061324211
-0.0070726440
0.0030555796
0.0097625101
-0.0022747522
-0.0176449205
0.0034161616
-0.0047093206
0.0065440323
0.0003215150
0.0037475715
0.0123807546
0.0080047725
0.0094905470
0.0049342505
0.0107233294
-0.0040327730
-0.0064283881
-0.0094124089
-0.0099268386
0.0108605941
0.0001307249
0.0153236075
-0.0148653798
0.0084740491
0.0061927859
-0.0133190778
0.0075264099
-0.0024395693
-0.0047621378
-0.0070733671
0.0086208623
-0.0067689796
0.0066214331
-0.0022716064
0.0047535330
-0.0031212434
0.0043888005
0.0060933238
0.0018339476
0.0009124544
0.0125059911
0.0046490229
-0.0087776044
0.0084351297
-0.0059468810
-0.0001160127
0.0020956075
0.0072559770
-0.0019262791
-0.0052123292
0.0074282398
0.0061831563
-0.0031749385
0.0072750655
0.0040951877
-0.0114497556
-0.0010497261
0.0037604547
-0.0082678959
-0.0145380811
0.0087996665
-0.0017671112
-0.0049478756
0.0126284673
-0.0104907975
0.0047509362
0.0086344067
-0.0018926219
-0.0081102145
-0.0008731678
0.0077175390
0.0050688949
0.0020527653
0.0017487956
-0.0132597856
-0.0019700536
0.0168185980
0.0063738448
0.0040522511
0.0096743230
0.0082860973
0.0094659831
-0.0153094850
-0.0004429943
-0.0049681154
0.0078445158
0.0099796093
0.0012625387
-0.0059874552
0.0043018181
0.0044261105
-0.0092181562
0.0075182291
-0.0043573162
0.0078247856
0.0033449942
-0.0071501507
0.0029964349
-0.0019793379
-0.0007570854
0.0063425438
-0.0036670317
-0.0014240214
0.0126635299
0.0083669916
-0.0006347731
0.0031467378
0.0010860661
0.0034184508
0.0104177891
-0.0073911318
-0.0028607878
-0.0055156370
-0.0079178689
-0.0051878617
0.0040909258
-0.0070991623
0.0057840520
-0.0013925237
0.0219124662
0.0132416724
0.0076849541
-0.0128402618
-0.0111930181
0.0009788031
-0.0128358717
0.0034175112
0.0026161464
-0.0003984920
0.0085640833
-0.0104795354
-0.0065468841
0.0015659624
0.0153017721
0.0017980438
-0.0145834225
-0.0004681706
-0.0117953186
0.0019448574
-0.0069951697
0.0043214435
0.0049093478
-0.0092051547
-0.0024391297
0.0072479392
-0.0038408732
-0.0032372224
0.0020849352
0.0216217968
0.0043285268
0.0127037431
0.0034446120
-0.0095253992
-0.0074126847
-0.0066555225
-0.0148120569
0.0038320895
-0.0001120260
0.0124697842
0.0082189142
0.0062544219
-0.0009842567
-0.0059923970
-0.0018184055
-0.0085038915
-0.0006108162
-0.0005119980
0.0017467450
-0.0007489368
0.0017848187
-0.0063544876
-0.0020500830
-0.0000065312
0.0156874668
0.0055757790
-0.0040910698
0.0108421910
0.0005190142
-0.0046228809
-0.0046752985
-0.0025619443
0.0033627112
0.0028528743
-0.0069286572
0.0180564789
-0.0045616555
-0.0051349548
-0.0057625811
-0.0040201923
0.0017939406
0.0016604853
-0.0109039116
-0.0032350337
0.0045112803
0.0002257886
0.0078569754
0.0102617156
-0.0038906910
0.0107956980
0.0023689114
-0.0037893271
-0.0049750425
0.0001791495
-0.0130084593
-0.0098092673
0.0115847332
0.0041618525
0.0062316019
0.0043648225
-0.0042733791
-0.0079323475
-0.0078407813
-0.0028449636
0.0029381881
-0.0045778405
0.0073997680
0.0006401427
0.0030539565
0.0010111427
-0.0069407010
0.0031806192
0.0059303925
0.0048215050
0.0051468388
0.0090070765
-0.0020645173
-0.0057418149
-0.0065456152
0.0024030285
-0.0104282234
-0.0030183033
0.0091090123
0.0046953257
0.0033860897
0.0015592456
-0.0107988494
-0.0005410910
-0.0069032420
0.0045383506
0.0131465699
-0.0102079002
-0.0097281522
-0.0037250885
0.0014763696
0.0076285603
-0.0131335258
0.0079612855
0.0072998500
0.0014213206
-0.0101516829
0.0073385027
-0.0039895764
-0.0039656448
0.0013707530
-0.0070371089
-0.0090931279
-0.0072384109
-0.0003123393
-0.0085765784
-0.0063439591
0.0040360868
-0.0102813086
0.0007351939
-0.0151070172
0.0120811098
0.0067085702
-0.0049401670
-0.0144023618
0.0089841694
-0.0059364254
-0.0000571622
-0.0033535091
-0.0011497531
-0.0034664709
0.0141899813
0.0102515905
0.0052999842
-0.0083248562
-0.0054470892
0.0017768515
0.0040524210
-0.0101756792
0.0129473280
-0.0004719196
0.0142490308
-0.0113919757
-0.0067523481
0.0088578421
-0.0093515047
-0.0138360663
-0.0017602547
0.0150964261
0.0071096231
-0.0031693817
0.0004449461
0.0050466200
-0.0057314296
-0.0007314399
0.0010030343
0.0106474325
-0.0109223120
-0.0106314189
-0.0012970252
0.0023915171
0.0130149966
-0.0135751538
0.0002149811
-0.0060431110
0.0058627661
0.0017702181
0.0092877279
-0.0057405842
0.0049087952
-0.0007744217
-0.0101735410
-0.0171230836
0.0198240416
-0.0057671479
-0.0002659585
-0.0017036070
0.0001525987
-0.0013977348
-0.0047649730
-0.0044924855
0.0042399721
-0.0059662891
0.0091338851
-0.0048651055
-0.0095006803
-0.0084259546
-0.0096940526
0.0054974725
0.0019879201
0.0210949964
0.0181921905
0.0037370181
-0.0063414347
-0.0149525427
0.0030934853
-0.0101055213
-0.0003934679
0.0005946328
-0.0089859331
0.0146962426
-0.0002893110
-0.0214403202
-0.0132544618
0.0001217898
-0.0090714483
-0.0248720252
-0.0013345214
-0.0049622516
-0.0010076412
0.0042068655
0.0036424930
0.0085848453
0.0016078377
0.0081365087
-0.0050063770
-0.0088650944
0.0174278664
-0.0041063603
0.0140027961
0.0095218426
0.0060190711
0.0046117066
0.0014639809
-0.0003175731
0.0117292726
0.0004348507
0.0112389394
-0.0196655047
0.0127529533
0.0003077674
0.0008468978
0.0051512481
0.0039289138
-0.0123330401
0.0033373187
0.0056165900
0.0058226620
0.0045111524
0.0043861802
-0.0138339004
-0.0050825871
0.0101140068
-0.0122740863
0.0029807302
-0.0088065770
0.0036192797
-0.0056772314
-0.0069146834
0.0113933064
-0.0040160724
0.0188529463
0.0050739515
-0.0062564748
-0.0226613950
0.0190374166
0.0202865328
-0.0133402355
-0.0172651566
-0.0160923735
0.0054068863
0.0060623251
-0.0142777305
0.0120376064
0.0168941537
-0.0006624043
0.0072128692
-0.0036036298
0.0083002004
0.0086759729
0.0102081008
0.0030020020
0.0091646946
0.0096389889
-0.0022207355
0.0036435857
-0.0019218266
0.0014604914
0.0083068107
0.0158352684
-0.0005916697
0.0023553600
0.0054728538
-0.0034352130
-0.0027268941
0.0147612837
-0.0041767146
0.0024291188
0.0001917362
0.0092569342
-0.0012486823
0.0038809229
0.0075370328
-0.0022262228
-0.0186051011
0.0064166488
0.0156186602
-0.0058630116
-0.0064684758
0.0047483870
-0.0044415984
-0.0032012484
0.0070574795
-0.0085732468
0.0001886175
-0.0031705408
-0.0045508581
-0.0044524740
-0.0132103998
0.0125765979
-0.0078585219
0.0122045819
0.0013686579
-0.0065074075
-0.0085165722
0.0081497591
-0.0025489364
-0.0011950761
-0.0108223535
0.0010877853
0.0069858281
0.0013093387
0.0084080951
0.0084701057
0.0086040345
0.0070104543
0.0117152376
-0.0154500934
0.0157161437
-0.0035140594
-0.0025008629
0.0162189737
0.0058300785
0.0000880574
0.0106818769
-0.0038345673
-0.0088529363
0.0017116924
0.0008712992
0.0144988784
-0.0066505443
-0.0092853833
0.0079478366
0.0019618610
0.0008395242
-0.0056646146
-0.0033711585
-0.0004686212
-0.0170106383
0.0012092113
-0.0025703212
0.0157315964
0.0003798015
0.0006852317
-0.0004940036
-0.0105364403
0.0091352930
0.0056325805
-0.0081862349
-0.0067289530
-0.0025219535
-0.0030060700
-0.0077045008
-0.0101801207
0.0116495751
0.0063746072
-0.0107915929
-0.0046922345
0.0063524763
0.0064316320
-0.0033653170
-0.0038408092
